<?xml version="1.0"?>
<opencv_storage>
<opencv_ml_ann_mlp>
  <format>3</format>
  <layer_sizes>
    140 40 65</layer_sizes>
  <activation_function>SIGMOID_SYM</activation_function>
  <f_param1>1.</f_param1>
  <f_param2>1.</f_param2>
  <min_val>-9.4999999999999996e-01</min_val>
  <max_val>9.4999999999999996e-01</max_val>
  <min_val1>-9.7999999999999998e-01</min_val1>
  <max_val1>9.7999999999999998e-01</max_val1>
  <training_params>
    <train_method>BACKPROP</train_method>
    <dw_scale>1.0000000000000001e-01</dw_scale>
    <moment_scale>1.0000000000000001e-01</moment_scale>
    <term_criteria>
      <epsilon>1.0000000000000000e-04</epsilon>
      <iterations>30000</iterations></term_criteria></training_params>
  <input_scale>
    8.1377046227841721e+00 -2.7565239532252916e+00
    7.3704114468126551e+00 -2.7246151576252080e+00
    6.5340039400396677e+00 -2.4585738868574460e+00
    5.1378027626360376e+00 -2.1250299733780955e+00
    3.7841723301608492e+00 -2.1361630546333421e+00
    3.6503901975361428e+00 -2.5957140285934059e+00
    4.0304452993794877e+00 -3.2818687848262447e+00
    4.0507420615648373e+00 -3.3098617672162987e+00
    5.2012487665983578e+00 -4.0833858472861628e+00
    5.6881112940187970e+00 -4.4184281707132191e+00
    5.6195408248106773e+00 -4.4380445961695498e+00
    5.4335602183064911e+00 -4.5025387728935291e+00
    5.3414958311137157e+00 -4.5966619300370812e+00
    5.0163809748356112e+00 -4.1193642244383470e+00
    4.5737421345687910e+00 -3.2740028842731208e+00
    4.6694766378957073e+00 -2.4880035227793762e+00
    4.3699820744986511e+00 -4.1698247073986344e-01
    6.6001390640639084e+00 -3.8426301433295568e-01
    8.3633848188020057e+00 -3.8890003514975990e-01
    8.8779382507934024e+00 -4.0615750882779506e-01
    5.8203292776185895e+00 -4.2980910016460845e+00
    6.2008460302153434e+00 -5.0019768772309003e+00
    6.2193546206961194e+00 -5.0547254326606250e+00
    6.2606706771023282e+00 -4.8508542665148298e+00
    6.4876900842297420e+00 -4.8251149624894589e+00
    6.5628595770862921e+00 -4.8527978341118487e+00
    6.6058451782220446e+00 -4.9041829575190770e+00
    6.6122808662104973e+00 -4.9148969554237203e+00
    5.8376657313350986e+00 -4.4048062764206213e+00
    5.7209193510609930e+00 -4.4520647614924993e+00
    5.7255589091364545e+00 -4.4284369237867587e+00
    5.7223425982120668e+00 -4.2634961955490427e+00
    5.8801516641203335e+00 -4.2271605028275934e+00
    5.9540793568125387e+00 -4.2854244185545740e+00
    5.9279689891340803e+00 -4.3418320387595584e+00
    5.8606637568356383e+00 -4.2693978691625469e+00
    5.4092621861860861e+00 -4.0696380157294003e+00
    5.3085347214903855e+00 -4.1628376405438132e+00
    5.3288745045709840e+00 -4.0786212486446960e+00
    5.4640409601257733e+00 -3.9418855823651939e+00
    3.1238494485060098e-01 -2.6205985590508479e-01
    4.9615433013415818e-02 -2.4174746244016945e-01
    1.3822142713189984e-02 -7.0797409269461220e-01
    1.0800165151667688e-02 -1.4123036151375679e+00
    1.0257472791839032e-02 -1.6362038349930357e+00
    1.1117841663783738e-02 -1.8941092633630245e+00
    1.1296244922053580e-02 -1.5390875502479537e+00
    1.4962016031102010e-02 -6.4692525245779109e-01
    4.9107962343025439e-02 -1.7352417926292379e-01
    2.2433223175893938e-01 -6.7028928445832067e-02
    2.4647429710857768e-01 -2.4509214208395322e-01
    3.8241407367404355e-02 -2.8065687273389744e-01
    1.1803728530100283e-02 -9.5071241381396210e-01
    1.0680409438145416e-02 -1.7185388127877357e+00
    1.1830956373561598e-02 -1.4612024370892089e+00
    1.1748001147066846e-02 -1.6414526895888666e+00
    1.0720212392573990e-02 -1.7974495041726852e+00
    1.2559887917972738e-02 -8.6909586010581663e-01
    3.8447992502761839e-02 -2.1238262346475628e-01
    1.8084532328471389e-01 -7.0151142105566208e-02
    2.7762315756632722e-01 -2.6941596316064215e-01
    3.4914704902074462e-02 -2.8727272680186661e-01
    1.0921127739948367e-02 -9.2640266715488140e-01
    1.0668778995693620e-02 -1.4739926793804077e+00
    1.0058449308310785e-02 -8.7763618134881427e-01
    9.7654966208877130e-03 -9.3485612248069627e-01
    1.0318489246406817e-02 -1.4122329928029307e+00
    1.1409225480841792e-02 -8.4055239876775911e-01
    3.4249378978875394e-02 -2.3084407099390977e-01
    1.7045640625855055e-01 -6.9051156649660300e-02
    2.2778942198039309e-01 -2.0921193529200069e-01
    3.4399537994456504e-02 -2.8725690023409367e-01
    1.0960547281056478e-02 -9.3697781032603311e-01
    1.0572507909829923e-02 -1.5566616263389141e+00
    1.0118895917982701e-02 -1.0894373660130676e+00
    1.0172197370587627e-02 -1.1332054801484235e+00
    1.0236663098302842e-02 -1.3589578955812418e+00
    1.1604276491251632e-02 -7.7055479813010541e-01
    3.5320063644527187e-02 -2.2817458645793359e-01
    1.6625329350461263e-01 -6.7723440234751076e-02
    2.2767733065764834e-01 -1.8915287192879110e-01
    3.7970713206898751e-02 -2.6204328416422551e-01
    1.1421375224179757e-02 -8.5438862306496810e-01
    1.0140053411411300e-02 -1.5938320878545416e+00
    1.0509207967324330e-02 -1.6384160132858729e+00
    1.1545082741925058e-02 -1.9951185139496932e+00
    1.1424993662689072e-02 -1.8612648962017129e+00
    1.2493257397044984e-02 -7.3918794968363932e-01
    3.9387341470226489e-02 -2.0386058232371157e-01
    1.6718635577903443e-01 -6.6004268339680969e-02
    2.3712817304197575e-01 -2.1881527561151232e-01
    3.8419099090736285e-02 -2.5696021724536156e-01
    1.1452163389536345e-02 -8.1664549246730289e-01
    1.0309097665751598e-02 -1.4764021590053025e+00
    1.1162652025455194e-02 -1.3690830093480573e+00
    1.0873198148567584e-02 -1.5981354530757896e+00
    1.1119539045516720e-02 -1.8613576988392009e+00
    1.2068655266616390e-02 -8.3052592620090437e-01
    3.9439738722121122e-02 -2.1638487883194224e-01
    1.7988308553314750e-01 -6.5172806315313220e-02
    2.1253356545236116e-01 -2.0264918714929206e-01
    3.4825150169234986e-02 -2.7411804170756610e-01
    1.0967086722152021e-02 -8.7652732659801669e-01
    1.0005690501310152e-02 -1.2974177490688548e+00
    1.1190868937809739e-02 -8.4095908074290593e-01
    1.0358919687836463e-02 -1.0020174300580131e+00
    1.0542274381540226e-02 -1.5695554779410283e+00
    1.1239802061075319e-02 -8.8989690676461031e-01
    3.5057243143440039e-02 -2.4505880520394918e-01
    1.9647524287733556e-01 -6.4513722624662123e-02
    2.0940608882796705e-01 -1.8523108381515652e-01
    3.2088493902637509e-02 -2.9237574195671495e-01
    1.0966979512977945e-02 -1.0343627788252117e+00
    1.0821824825718054e-02 -1.6193021154659217e+00
    1.0831407612741656e-02 -9.1075461114934853e-01
    9.6630242688365738e-03 -9.7784846276943116e-01
    1.0337107246955661e-02 -1.5224197431552133e+00
    1.1147813626084659e-02 -9.2197229520371149e-01
    3.4739340341621239e-02 -2.5207937642624551e-01
    1.9360757364181791e-01 -6.3819929187794180e-02
    2.3932588233376281e-01 -2.1271790906929960e-01
    3.4900110306763640e-02 -2.7937319191009158e-01
    1.1714724353171514e-02 -1.0231168690632788e+00
    1.0755416670680609e-02 -1.8141200502015973e+00
    1.2447382482719746e-02 -1.5601602009998483e+00
    1.2587992436119307e-02 -1.6584814308552585e+00
    9.9725376898276586e-03 -1.5966880197109536e+00
    1.2635218735338233e-02 -8.7764478866981455e-01
    4.0389408752516093e-02 -2.2349823748557970e-01
    1.7525524399171585e-01 -6.0376852312640381e-02
    2.4017404447187637e-01 -2.2661795735856674e-01
    4.6575543924717550e-02 -2.3541004835581061e-01
    1.4116219264783458e-02 -6.8772385820656212e-01
    1.1282200698639116e-02 -1.4150366353999480e+00
    1.0028742006137683e-02 -1.5188244298192091e+00
    1.0009453534768809e-02 -1.4245692701405959e+00
    1.1150665195312629e-02 -1.2970542656017074e+00
    1.4769055424550811e-02 -6.1469193972343250e-01
    4.8856519844142590e-02 -1.8401451141102396e-01
    2.1604098433346408e-01 -5.9916279331784811e-02</input_scale>
  <output_scale>
    5.2631578947368418e-01 4.9999999999999994e-01 5.2631578947368418e-01
    4.9999999999999994e-01 5.2631578947368418e-01 4.9999999999999994e-01
    5.2631578947368418e-01 4.9999999999999994e-01 5.2631578947368418e-01
    4.9999999999999994e-01 5.2631578947368418e-01 4.9999999999999994e-01
    5.2631578947368418e-01 4.9999999999999994e-01 5.2631578947368418e-01
    4.9999999999999994e-01 5.2631578947368418e-01 4.9999999999999994e-01
    5.2631578947368418e-01 4.9999999999999994e-01 5.2631578947368418e-01
    4.9999999999999994e-01 5.2631578947368418e-01 4.9999999999999994e-01
    5.2631578947368418e-01 4.9999999999999994e-01 5.2631578947368418e-01
    4.9999999999999994e-01 5.2631578947368418e-01 4.9999999999999994e-01
    5.2631578947368418e-01 4.9999999999999994e-01 5.2631578947368418e-01
    4.9999999999999994e-01 5.2631578947368418e-01 4.9999999999999994e-01
    5.2631578947368418e-01 4.9999999999999994e-01 5.2631578947368418e-01
    4.9999999999999994e-01 5.2631578947368418e-01 4.9999999999999994e-01
    5.2631578947368418e-01 4.9999999999999994e-01 5.2631578947368418e-01
    4.9999999999999994e-01 5.2631578947368418e-01 4.9999999999999994e-01
    5.2631578947368418e-01 4.9999999999999994e-01 5.2631578947368418e-01
    4.9999999999999994e-01 5.2631578947368418e-01 4.9999999999999994e-01
    5.2631578947368418e-01 4.9999999999999994e-01 5.2631578947368418e-01
    4.9999999999999994e-01 5.2631578947368418e-01 4.9999999999999994e-01
    5.2631578947368418e-01 4.9999999999999994e-01 5.2631578947368418e-01
    4.9999999999999994e-01 5.2631578947368418e-01 4.9999999999999994e-01
    5.2631578947368418e-01 4.9999999999999994e-01 5.2631578947368418e-01
    4.9999999999999994e-01 5.2631578947368418e-01 4.9999999999999994e-01
    5.2631578947368418e-01 4.9999999999999994e-01 5.2631578947368418e-01
    4.9999999999999994e-01 5.2631578947368418e-01 4.9999999999999994e-01
    5.2631578947368418e-01 4.9999999999999994e-01 5.2631578947368418e-01
    4.9999999999999994e-01 5.2631578947368418e-01 4.9999999999999994e-01
    5.2631578947368418e-01 4.9999999999999994e-01 5.2631578947368418e-01
    4.9999999999999994e-01 5.2631578947368418e-01 4.9999999999999994e-01
    5.2631578947368418e-01 4.9999999999999994e-01 5.2631578947368418e-01
    4.9999999999999994e-01 5.2631578947368418e-01 4.9999999999999994e-01
    5.2631578947368418e-01 4.9999999999999994e-01 5.2631578947368418e-01
    4.9999999999999994e-01 5.2631578947368418e-01 4.9999999999999994e-01
    5.2631578947368418e-01 4.9999999999999994e-01 5.2631578947368418e-01
    4.9999999999999994e-01 5.2631578947368418e-01 4.9999999999999994e-01
    5.2631578947368418e-01 4.9999999999999994e-01 5.2631578947368418e-01
    4.9999999999999994e-01 5.2631578947368418e-01 4.9999999999999994e-01
    5.2631578947368418e-01 4.9999999999999994e-01 5.2631578947368418e-01
    4.9999999999999994e-01 5.2631578947368418e-01 4.9999999999999994e-01
    5.2631578947368418e-01 4.9999999999999994e-01 5.2631578947368418e-01
    4.9999999999999994e-01 5.2631578947368418e-01 4.9999999999999994e-01
    5.2631578947368418e-01 4.9999999999999994e-01 5.2631578947368418e-01
    4.9999999999999994e-01</output_scale>
  <inv_output_scale>
    1.8999999999999999e+00 -9.4999999999999996e-01
    1.8999999999999999e+00 -9.4999999999999996e-01
    1.8999999999999999e+00 -9.4999999999999996e-01
    1.8999999999999999e+00 -9.4999999999999996e-01
    1.8999999999999999e+00 -9.4999999999999996e-01
    1.8999999999999999e+00 -9.4999999999999996e-01
    1.8999999999999999e+00 -9.4999999999999996e-01
    1.8999999999999999e+00 -9.4999999999999996e-01
    1.8999999999999999e+00 -9.4999999999999996e-01
    1.8999999999999999e+00 -9.4999999999999996e-01
    1.8999999999999999e+00 -9.4999999999999996e-01
    1.8999999999999999e+00 -9.4999999999999996e-01
    1.8999999999999999e+00 -9.4999999999999996e-01
    1.8999999999999999e+00 -9.4999999999999996e-01
    1.8999999999999999e+00 -9.4999999999999996e-01
    1.8999999999999999e+00 -9.4999999999999996e-01
    1.8999999999999999e+00 -9.4999999999999996e-01
    1.8999999999999999e+00 -9.4999999999999996e-01
    1.8999999999999999e+00 -9.4999999999999996e-01
    1.8999999999999999e+00 -9.4999999999999996e-01
    1.8999999999999999e+00 -9.4999999999999996e-01
    1.8999999999999999e+00 -9.4999999999999996e-01
    1.8999999999999999e+00 -9.4999999999999996e-01
    1.8999999999999999e+00 -9.4999999999999996e-01
    1.8999999999999999e+00 -9.4999999999999996e-01
    1.8999999999999999e+00 -9.4999999999999996e-01
    1.8999999999999999e+00 -9.4999999999999996e-01
    1.8999999999999999e+00 -9.4999999999999996e-01
    1.8999999999999999e+00 -9.4999999999999996e-01
    1.8999999999999999e+00 -9.4999999999999996e-01
    1.8999999999999999e+00 -9.4999999999999996e-01
    1.8999999999999999e+00 -9.4999999999999996e-01
    1.8999999999999999e+00 -9.4999999999999996e-01
    1.8999999999999999e+00 -9.4999999999999996e-01
    1.8999999999999999e+00 -9.4999999999999996e-01
    1.8999999999999999e+00 -9.4999999999999996e-01
    1.8999999999999999e+00 -9.4999999999999996e-01
    1.8999999999999999e+00 -9.4999999999999996e-01
    1.8999999999999999e+00 -9.4999999999999996e-01
    1.8999999999999999e+00 -9.4999999999999996e-01
    1.8999999999999999e+00 -9.4999999999999996e-01
    1.8999999999999999e+00 -9.4999999999999996e-01
    1.8999999999999999e+00 -9.4999999999999996e-01
    1.8999999999999999e+00 -9.4999999999999996e-01
    1.8999999999999999e+00 -9.4999999999999996e-01
    1.8999999999999999e+00 -9.4999999999999996e-01
    1.8999999999999999e+00 -9.4999999999999996e-01
    1.8999999999999999e+00 -9.4999999999999996e-01
    1.8999999999999999e+00 -9.4999999999999996e-01
    1.8999999999999999e+00 -9.4999999999999996e-01
    1.8999999999999999e+00 -9.4999999999999996e-01
    1.8999999999999999e+00 -9.4999999999999996e-01
    1.8999999999999999e+00 -9.4999999999999996e-01
    1.8999999999999999e+00 -9.4999999999999996e-01
    1.8999999999999999e+00 -9.4999999999999996e-01
    1.8999999999999999e+00 -9.4999999999999996e-01
    1.8999999999999999e+00 -9.4999999999999996e-01
    1.8999999999999999e+00 -9.4999999999999996e-01
    1.8999999999999999e+00 -9.4999999999999996e-01
    1.8999999999999999e+00 -9.4999999999999996e-01
    1.8999999999999999e+00 -9.4999999999999996e-01
    1.8999999999999999e+00 -9.4999999999999996e-01
    1.8999999999999999e+00 -9.4999999999999996e-01
    1.8999999999999999e+00 -9.4999999999999996e-01
    1.8999999999999999e+00 -9.4999999999999996e-01</inv_output_scale>
  <weights>
    <_>
      7.1129667101368266e-01 2.4268585706033952e-02
      6.7433346764510482e-01 6.7985426823706907e-01
      3.1586610582742058e-01 8.6567036613743131e-01
      1.0720575896301123e+00 -8.9651726940553766e-01
      -4.9761480011486020e-01 9.2091731966246593e-01
      3.7602129746309876e-01 1.0437149690450553e+00
      -8.7598822148539579e-01 -2.2939101152784080e-01
      8.8651770792200957e-01 1.0050846210801809e-02
      9.3934738173896207e-02 3.0809141087821845e-01
      2.5994066123030096e-01 7.8085805214506698e-01
      5.7374786946822065e-01 -8.5035669433941863e-01
      2.2750842412395417e-01 -4.6209689067699217e-01
      -8.7391790107735678e-01 -3.9225090521418116e-01
      4.5074646539722756e-02 8.7247378384215790e-01
      3.0374169249374638e-01 6.4615754073279141e-01
      -1.0841045390651229e-01 7.5035903690892719e-02
      6.2825169662900704e-01 -5.7229128447412991e-01
      -4.3460509689850202e-01 -2.6709067319306123e-01
      -1.0187498821902916e+00 -5.2339771049855122e-01
      5.6167118392814208e-01 -1.0877254215996121e-02
      -2.0855158950232530e-02 -7.8976310665109753e-02
      8.8234113422878047e-01 -2.1502133132670923e-01
      -1.9415509179282978e-01 5.2849873646340917e-02
      -3.1417989618325655e-02 -3.6891719390073924e-01
      -2.4899832497857102e-01 -3.5074416263868885e-01
      2.6900734782140784e-01 -4.7356054262586667e-01
      -3.4152148495354201e-01 -2.3120562586812349e-01
      9.2464767535724923e-01 -1.2983388700263088e+00
      3.8206864521478584e-01 -5.0817834191588618e-01
      -5.7375499401148822e-01 3.9888056455347140e-03
      2.7621519714871656e-01 -1.9940018367518833e-01
      7.6590621082758137e-01 8.7652186785182751e-01
      -8.0862957691562642e-01 3.7909218950367468e-01
      -2.1501598509215331e-01 1.0345080524902359e+00
      1.5363317148288264e-01 4.1599049126450405e-01
      9.1513906803579814e-01 -3.1211358608092810e-01
      -9.0168806378994981e-01 -1.4346077883586425e-01
      4.9195657911540885e-01 -2.2411888233861230e-02
      -1.2925801789482105e-01 4.3667778524149325e-01
      6.5542663264952283e-01 4.2515992962005716e-01
      -5.8297908398321385e-01 2.4358552366125463e-01
      -1.8466358459474827e-01 3.9979272967496947e-02
      4.3870917857202962e-01 4.2280843323543760e-01
      -1.2933547665350205e+00 -3.3730022297780285e-02
      -1.2670044823270230e+00 2.5576780851178305e-01
      9.5438598984823420e-01 2.2393189610145386e-01
      -4.0729879240325551e-01 6.5677338288104248e-01
      3.0184257201390546e-01 -2.6366439608311215e-01
      4.9626907270021064e-01 -5.5111971821100181e-01
      4.7175940269775767e-03 8.1566853351523139e-01
      2.3796653488425260e-01 2.4517671582934117e-01
      -3.1314999212322525e-01 -4.4836222299257400e-01
      -1.1683150134989158e+00 9.1629227821233047e-02
      4.2120380384802419e-01 1.1869251494398086e-01
      -2.8240163687539364e-02 5.2733471499441166e-02
      4.8186048195177245e-01 -8.3057569683100796e-01
      1.1026355759777975e-01 6.7701883034663879e-01
      -3.9880736213281844e-02 5.4653912151743778e-01
      -4.8047615535626642e-01 2.3773891965759927e-01
      5.2921832776585875e-01 7.0702213676699566e-01
      1.1172344226240833e+00 4.8667220522384413e-01
      -4.0989989371889002e-01 5.1956137089430909e-01
      3.4138315218895909e-01 -3.6269637229372258e-02
      -7.0979216287511485e-02 -1.3444041430155953e+00
      -1.2846794753240056e+00 -1.7514418512951310e-01
      1.7118167118488176e-01 2.2181396216356922e-01
      -2.2949378518114090e+00 1.9213412403345415e-01
      -1.1299290516822462e+00 -3.1776810310341558e-01
      6.9313488562875747e-01 -4.7593663766220054e-03
      -1.0541684967144416e+00 1.2883645054339903e+00
      -4.3488781579272912e-01 1.3580954622708705e-01
      3.2613416703895770e-01 3.1299727321307652e-01
      4.2092737146985937e-01 -1.7489218257071282e-01
      -1.9965188341217904e-01 3.2392116524377568e-01
      9.6598809928654139e-01 8.7528849099111083e-01
      5.6931376367204667e-01 -8.1200455252355697e-01
      3.1158924961490753e-01 6.9108264629234795e-01
      7.2074342613145181e-01 2.5811888879150224e-01
      -7.8502473648561569e-02 1.0783432523904742e-02
      7.4465413274467207e-01 -2.8581286810129408e-01
      2.2042555037076759e+00 2.7453890273301079e-01
      1.8149455734974654e-01 -2.0763967431320432e-01
      9.7879718270573157e-01 -5.2568648499488946e-01
      1.1733737137874132e+00 -1.5107365320520181e+00
      8.8125612666432718e-01 6.7184540117450264e-01
      2.1180184188434481e-01 -1.3406160313840573e-01
      -1.3728200015706790e-01 -2.6424793626552384e-01
      -6.8788523025696202e-01 -6.3293894833321263e-01
      3.4749941098869180e-01 8.3180668930657709e-01
      3.3651583172599031e-01 7.5503383972450822e-01
      3.7417591200909028e-01 -1.3474332262019606e-01
      1.2675325233451946e+00 -6.3294467634615481e-01
      -2.4117829542560992e-01 -6.6330439300103780e-02
      8.0182796846516713e-01 1.0672264982274944e+00
      8.0113794959597517e-01 -5.1427893685556125e-01
      1.7452570887763665e+00 -1.6378037106543892e+00
      -1.9718932192955843e-01 3.4035987651923150e-01
      6.6779651517728955e-01 1.4202979305974817e+00
      1.1319372040274884e+00 4.6798672246366892e-02
      1.3644750646258628e+00 -3.8843300677655873e-01
      -3.6216556776397062e-02 1.1480773082270284e+00
      -7.8901438362494847e-01 4.2627270208736157e-01
      -5.3360123172319040e-06 -1.1531488693858187e+00
      -1.0736315364403033e+00 2.4550532624488011e-01
      8.6533693032000913e-01 9.6595591740665243e-01
      5.7168282869409570e-01 3.6557702511306300e-01
      9.6193464130882933e-01 3.7375035723355771e-01
      -9.0020702594516122e-01 -1.4693879202790707e+00
      -2.1486404097582121e-01 7.2855983587275919e-01
      -5.7326639715144079e-01 5.7185193346240415e-01
      -1.7522112615863958e-01 -8.8971241143139279e-01
      5.1392238528401513e-01 4.5945508070194907e-01
      4.9049978739577704e-01 3.8009886609931365e-01
      -6.0343351154183988e-01 -9.3501620141169486e-02
      -3.8618908629531418e-01 -5.8419022237644846e-01
      -1.2879295352094451e+00 5.6291836332740075e-01
      -6.0322432899130229e-01 1.1816520830785087e+00
      -3.8311679650502667e-01 -2.5276666455731001e-01
      -1.6891010534695250e-01 -7.7091056022059512e-01
      1.5276039788143787e+00 5.5938394394762658e-01
      1.1296924176621717e+00 2.1122436800324467e+00
      -1.6664884881460647e+00 1.4097506527426584e+00
      7.4926785999496248e-01 -2.0921908369103712e-01
      -5.4475076649218745e-01 1.5043314862215101e-01
      2.1517896272087916e-01 5.0626376036882836e-01
      7.1013773430702753e-01 5.4340287792407360e-01
      -4.2239210552975237e-01 -1.0342859315658140e-01
      -1.7648669338079661e+00 -1.3022175245683043e+00
      4.0868628543633839e-01 2.3799020520158748e-01
      -9.3518985793415355e-01 -6.1812603089825346e-01
      1.2100054364883492e+00 -6.7989274057746207e-01
      7.7414622972628910e-01 2.6240003778956007e+00
      1.1179249389645285e+00 -2.9134996456471945e-01
      -1.9535745888483273e-02 1.4804455003029373e+00
      3.4809017966165917e-01 -1.4580066359358607e-01
      7.6796246963497183e-01 3.0068738742189787e+00
      6.7905854629557683e-01 2.1654959175817607e+00
      1.3203956583159859e+00 -4.0963487299618717e-01
      1.1888607624402541e-02 -1.5510594728820086e+00
      1.6124633517416496e+00 1.7068754205214662e-01
      -1.7277490327197016e+00 1.4011228255572708e-01
      3.8518793918162697e-01 -3.5279408765828779e-01
      4.6459108199568927e-01 -5.3721796691769541e-01
      -2.5274743751901757e-01 -4.3782298268210912e-01
      1.0904732105753590e+00 4.5529506969539335e-01
      2.2963494480598934e-01 -1.5786328471316266e-01
      4.4038200353594192e-01 5.1305668037683916e-01
      -8.1864554386541666e-01 -3.7420568533876380e-01
      9.2755173668693169e-01 -1.3235169166317089e+00
      -8.9105574664207010e-01 1.3567999599338803e+00
      -2.1498244247409828e-01 -9.0218198814796302e-01
      1.2557792362577562e+00 1.1431969746921344e+00
      1.2753304361233161e-01 2.9312577601972922e-01
      -2.6163419411181088e-01 1.3285215000288666e+00
      8.6997169179606437e-01 -8.9688365711981100e-01
      1.0277117874022406e+00 -1.6132713462276904e+00
      -1.0394879845409821e+00 2.3931081748945224e-01
      2.0189159065259749e-01 -3.8824570178211415e-01
      -7.5872076079817649e-02 -1.0824304723294571e+00
      6.8714559034748857e-01 -4.4654484537812950e-01
      2.2507447534093036e-01 -8.0550896294329238e-02
      1.9686098873722255e-01 9.8829006913494699e-01
      5.7517430522147667e-02 -3.6111229467513895e-01
      5.1972086636868453e-01 2.8079402920172225e-01
      1.4412903444907430e+00 4.9054528115185542e-01
      4.7472443738443093e-01 1.5738698638966858e-01
      -1.1444431233637582e+00 8.7466973527807035e-01
      -1.1136513362211228e-01 3.9567395238306369e-01
      7.0693257635058890e-02 3.5182987372097685e-01
      -1.2769974149648087e+00 2.0661202109501331e-01
      -6.5438546447284429e-01 -1.0726930488784463e+00
      -8.1646664484071951e-01 1.4726820427007683e+00
      -5.2828393035987453e-01 5.3109681851400581e-01
      -2.1113308051598539e-01 6.0886569945043678e-01
      -7.6092767538043216e-01 -1.3500217760322712e+00
      -5.1235246962458403e-01 -1.2041032560868330e+00
      -6.8421825689144877e-01 -2.0115354336262115e-01
      2.6852173618914643e-01 7.1110326240479316e-01
      7.1171638222295575e-01 -1.9438601894982671e-01
      4.2410593494015308e-01 -3.3672280505939811e-01
      -6.3683204238042068e-01 1.0800624339275111e+00
      1.0015731956601854e+00 -2.6212827723564586e-01
      -1.0497732289457613e+00 -8.1012218893786914e-01
      8.9853990543593942e-01 -1.9741379650309732e+00
      -1.0909573606081095e-01 -1.7188839814216144e+00
      -5.7247317818486254e-01 5.7696548087374788e-01
      -5.5756247588421626e-01 3.2529831036471962e-01
      1.3754942259044662e+00 -1.4767762130276532e+00
      -7.6625216941040741e-01 3.1293458413124686e-01
      3.0817657361750483e-01 -6.7455167028162200e-01
      1.2340598866250996e+00 2.7735004750268566e-01
      8.6238899646218437e-01 9.7540141238087269e-02
      -5.2771295472424806e-01 6.2649567434099462e-01
      -7.0631509038340656e-01 4.5902788791092025e-01
      -1.2644519596990800e+00 -1.5983811996267977e-01
      -1.3730468922840988e+00 -1.5541306118285234e+00
      7.8802215607696902e-01 4.9337522773597797e-01
      -7.9248441880931753e-01 -2.0307377913517572e+00
      -1.3856847617754900e-01 -1.2797165745826882e+00
      -1.0908096020665826e-01 -9.9761246542147286e-01
      -1.7139519266871266e+00 4.5521009215661828e-01
      1.9533647897565463e+00 1.2916595761209215e+00
      -9.9721815394653723e-01 -1.3405147466745282e+00
      -3.4814492199189792e-02 -2.2732498692109493e+00
      3.0789211530291405e-01 -2.2107273239235736e+00
      -4.4678928339248908e-01 7.2104747010098813e-01
      8.0823409123968271e-01 9.8327876983284113e-01
      1.3974489054078278e+00 -1.2657740016499641e+00
      1.5010303998042884e+00 -8.7976133536812828e-02
      -2.7436363033904631e-02 -3.6234132565982785e-01
      7.8007774893094373e-01 1.4302762969520644e+00
      5.5103940091875164e-02 -4.2667584890379856e-01
      1.1823966192024807e-01 1.1982029004263757e+00
      7.0369111773615023e-01 3.6765462674542632e-01
      -8.8677718978542941e-01 -1.2344276253941249e+00
      9.7333801380491614e-01 -2.1323505096543607e+00
      2.7443181887003849e+00 -1.4610166862348800e-01
      -1.5440808740090299e+00 -7.8796545841942822e-01
      1.2940203598798814e+00 -1.0702738529921734e+00
      -3.4789854498078682e-01 -9.1899628114565735e-01
      -6.7219219455909029e-01 2.6234798057106392e+00
      -3.4258441450149874e-01 -4.6317631840350687e-01
      -3.3866370492408210e-01 -9.0719871929652696e-01
      -8.0346565948292925e-01 9.5058906057872361e-01
      8.4944737122003233e-01 -1.1292558345564367e+00
      -2.2486920464620461e-01 3.7667506971190860e-02
      -1.3823705547132314e+00 -1.0776527954996267e+00
      8.1735287649206079e-01 -6.1127868035005539e-01
      1.0672043090575358e+00 -5.9673208172923486e-01
      4.6511820511227353e-01 -2.1702533226584494e-02
      7.1587132671294490e-02 -1.0195474554203414e+00
      -6.7500614107331169e-01 -6.4650961416636288e-01
      -1.0168476058804778e+00 7.9703474723036527e-01
      8.4956945525660965e-02 -8.1609154623803679e-02
      -6.4238892754886412e-01 6.1897210611702835e-01
      3.6117076901548867e-01 -9.7010030882461928e-01
      2.1842583927505638e-01 2.5932896972597730e-01
      -1.1263156625132147e+00 -8.9267879579015741e-01
      2.4051272859336500e-01 1.2434418111583843e+00
      1.2730492192981335e+00 4.1890534077487773e-01
      4.4300882556661419e-01 2.2973665209690166e+00
      4.6471118928519839e-01 -3.6096548477904356e-01
      3.6067836554246979e-01 -4.3030391675766622e-01
      -8.0036405170618541e-01 5.6337817757617689e-02
      3.2521295450738802e-01 -8.1741279354015609e-02
      2.9848485891151999e-01 4.8190239154969583e-01
      -1.1183524665905271e+00 -3.0437257629937831e-01
      1.7395162839662390e+00 -1.4566887102213919e+00
      6.1550276499370438e-01 -4.9686476100922727e-01
      -1.1307323001662997e+00 1.9635178484465504e-01
      1.1917586392135017e-01 4.9116052832348867e-01
      -4.9917901660778868e-01 -4.3023515707767457e-01
      -6.6450729848240619e-01 7.6615676911279962e-01
      -3.9460514994335100e-01 2.2661212265812164e-01
      -8.1092104865201298e-01 -1.1875612360652954e+00
      9.8866612815792698e-01 2.0956982504440131e+00
      -4.4799947209442909e-01 4.6160208106006606e-01
      -4.9927098036689249e-01 -1.0796053247480351e+00
      6.0683296516266705e-01 1.3074150839490486e+00
      1.1098856198425600e+00 9.8386366909230050e-01
      9.6688697723379036e-01 4.1116510260740124e+00
      6.0314053487160790e-01 1.8686234210032027e+00
      1.3858758822103023e+00 1.3829154987806189e+00
      -8.4226668153187012e-01 -1.8956950435640041e-01
      -9.4251787001840526e-01 1.5465523382460811e-01
      1.2424980873814170e-01 9.0265312768950912e-01
      -1.3903360059782319e-01 -2.1663859447983915e+00
      -2.2420675721763659e+00 -2.6339817713290925e+00
      -3.2141678570009535e-01 -9.6275023382002411e-01
      -4.2510480123413741e-01 4.9554028235505815e-01
      -1.4101108642001476e+00 -1.1359398532839111e+00
      -4.9026995240630683e-01 -2.4397865975152302e-01
      -1.7184118639529797e+00 -3.8200154075342818e-01
      -5.1912510027249326e-01 7.4268141931481224e-01
      -7.1265340922311426e-01 -9.0384498058742457e-01
      -5.0152302588902520e-01 1.6878061874336960e+00
      -1.7803079128993529e+00 7.2044207987742770e-01
      2.7979952587022827e-01 -1.3552347700286868e-02
      -1.3550165396442924e+00 3.6690760460787208e-01
      1.6834914777089494e+00 1.1071567727167386e+00
      -1.0575434025815704e+00 2.3095852548153366e+00
      5.2714304587015315e-01 1.3356314837674368e-01
      5.8335414392805029e-01 7.5914054666580966e-01
      -8.5739831969706623e-03 6.1015242345361383e-02
      -2.1189060281909911e-01 -9.9722550257873133e-01
      -4.6738984276136486e-01 1.4231898914132568e-01
      1.9697526995533294e+00 -3.5119619957443254e-01
      8.1755894985718791e-01 4.2756656216447231e-01
      -2.8027023467582518e-01 -7.6778808866001935e-01
      3.1593355902353221e-01 2.7014261820448526e-01
      -7.0956986322995130e-01 -6.2810966502564569e-01
      -3.8150348252287181e-01 -1.0571659372392028e+00
      -1.0370609711481318e+00 7.0546223953309728e-01
      -2.9686664942289837e-01 5.6111217766254252e-02
      -7.0689849677562477e-01 -2.1879605869279262e+00
      5.8700750355107423e-01 2.4710301825739892e-01
      1.6480089408292095e-01 -4.7238863211624177e-01
      1.7136564815046138e+00 4.1560167814386720e-02
      -7.8374985291515242e-01 -2.1261897611274785e-01
      2.2066949852336459e-01 -5.0662281966746506e-02
      3.0719231932607083e-01 -1.5998513943713874e-01
      3.1753042381017410e-01 -5.3334373142015105e-02
      3.9829470527796096e-01 8.2044260935780722e-01
      -1.2506261683909620e-01 -6.5102145434205977e-02
      -1.2947076477375581e+00 4.8352506452809835e-01
      -3.5473052596504134e-01 -2.2938386408566339e-02
      -6.7221122787252874e-01 3.2464518546853793e-01
      -5.0237055443857337e-01 7.4782954772090249e-01
      1.0108124381477801e+00 -1.0442382125906928e+00
      1.5136653067562247e-01 1.0809512671970194e+00
      -3.2053103077910261e-01 8.6748896779729034e-01
      6.6002949304080183e-01 -2.3198946838912432e-01
      -1.3027943370714939e-01 -5.6419152958217955e-01
      3.2910465486440410e-01 3.3232451307955480e-01
      -7.0938322915697211e-02 1.0088735382169329e+00
      -5.9456285113878204e-01 -4.4412789478057513e-01
      -3.2470762762948741e-01 5.1795547289599697e-01
      7.0700964300815272e-01 -2.4113205220234263e-01
      2.9103563550983275e-01 1.1114427249172023e+00
      -5.2020276433054957e-01 -8.4956793406492134e-02
      4.0211843976028788e-01 -1.6169179708131931e-01
      -3.5513550159064716e-01 -1.2464503100463881e-01
      6.8523508733835836e-01 -9.4900901610811583e-01
      8.1347324727051795e-01 -1.3910803832011709e-01
      2.1509081770923838e-01 1.4089169151414245e+00
      8.1889148434992703e-02 -1.7643980583715893e-01
      4.2686389052700546e-01 5.6522765235823147e-01
      -2.2292869767970482e-02 -4.0288736816300164e-01
      5.6900599735587831e-01 5.4819291149908633e-01
      7.9172632352839029e-02 -1.0043320462415382e+00
      5.7210183692371452e-01 8.2033808015953302e-01
      8.8863136380132945e-01 2.0768524230408367e+00
      4.7865650940434645e-01 -1.1421712241641730e+00
      7.4541143571334434e-01 1.2208771536766370e+00
      -6.9299767439255400e-01 -2.4658398004625728e-01
      -1.3410510108931192e-01 3.2104910227528816e-01
      -2.1835364315780459e+00 -1.8172452124290450e-01
      1.1978518865185209e-01 5.0142681682492857e-03
      8.7705639235733002e-01 6.0287677751498936e-01
      -6.4617281291770101e-01 2.6792582538714982e-01
      2.0871549983557278e-01 9.7637360633336756e-01
      -4.4799450549394843e-01 -2.9186631459985457e-01
      -4.6052614686781862e-01 9.6120168837215514e-01
      -4.0467717268016046e-01 -2.8287641438562622e-01
      2.7087412726897558e-01 -8.7209736594162124e-01
      -2.6107184181003790e-01 5.1588105198526379e-01
      7.4698303078642359e-01 6.1136494294309396e-01
      9.5608778865472377e-01 9.1765085729605977e-01
      3.9909798001699637e-01 -4.9525155629835943e-01
      -1.5339336246387074e+00 8.8870614724648822e-01
      1.7881296234447655e-01 -7.2157680280617198e-01
      1.3532712444232997e+00 3.1120792250223667e-01
      -1.4897651327175135e-01 1.2202367639887954e+00
      2.9554909009188923e-01 -1.3089719896025362e+00
      -8.5848055182568961e-01 -8.6311078685063902e-01
      -1.0929292005459270e+00 -5.8187274879634321e-01
      7.2212594415089215e-01 -5.6221423385522595e-01
      -1.9671960341231032e+00 9.5258185865401024e-01
      2.2617064775856960e-01 -1.2407642558497998e+00
      3.6290643608825701e-01 6.6141342793881408e-01
      -8.7934562633195601e-01 -3.5943434962534521e-01
      -9.7278855197574166e-01 7.9076775838068369e-01
      -1.2076294944637604e+00 2.0263554801288242e-01
      1.7025474548657409e+00 7.1670984799811355e-01
      -5.4189975062566897e-01 -6.3254262427562669e-01
      -2.1808216020979218e-01 -2.1376213549071060e-01
      -8.3210807763285899e-01 1.4355568662996210e+00
      4.7146415903798022e-01 -7.6779297900513105e-02
      3.4084747851035152e-01 -7.3144540713953390e-02
      -4.4531331753807757e-01 2.6692594056160668e-01
      -1.7212039642661170e+00 5.6134673031166531e-02
      4.3051207708017775e-01 -1.8107331662091486e+00
      -7.4198817187940491e-01 -2.6798504921495475e-01
      9.5542531663871422e-01 -1.5179161234667842e+00
      6.8019234346443325e-01 5.6876384240892763e-01
      2.2910500421062401e-02 -3.8159955403310636e-01
      -2.3770837709993726e+00 -9.5085470610053346e-01
      2.8098161312535019e+00 -3.3142075718219843e-01
      2.0749260442912355e-02 5.7424479782973192e-01
      -4.5612093372617263e-01 1.4708067289533923e-02
      5.2931763365396158e-02 1.2654449666739223e+00
      3.8411759695369582e-03 -1.1128106438047822e+00
      3.2943435782966596e-01 -9.7382584222369013e-03
      -9.3935177906847869e-02 -6.4996224952711212e-01
      -2.0216809814208281e-01 -3.2897289278907182e-01
      -1.1308039769288000e-01 -7.8072033553707487e-01
      -6.4170543617413189e-01 1.0138692680257169e+00
      3.3579126767464249e+00 -9.8031357795771337e-02
      -4.7295023140488231e-02 -7.2795184744291697e-01
      -3.4010294949097053e-01 -4.1721907673738429e-01
      6.9522370620372725e-02 -4.5310333978815326e-01
      1.3814316666845908e-01 4.0329782974403955e-01
      5.8073985322357946e-01 1.0131196266115050e+00
      1.6489075500847907e+00 1.9074421363166860e+00
      -1.9788605913553534e-01 -8.8821656810012268e-03
      -1.9421455394995066e-01 -4.9101261181286149e-01
      2.4888533919943645e-01 -8.7724443148508691e-01
      1.0881220607079793e+00 -1.0262615334268104e+00
      7.6874231476334309e-01 -1.3956787244769091e+00
      -4.4221941186368940e-01 -4.7613777983994582e-01
      1.5323537663584537e+00 -1.0404354589929914e+00
      9.8374706153900496e-02 4.0136283306861531e-01
      1.4903983742883734e-01 -8.4613641501349290e-01
      1.1783029758089136e+00 3.0963798954347432e-01
      -2.2013538994924362e-01 -1.6200100032661591e+00
      -2.7336621878808642e-01 -8.5354916486939436e-02
      -1.2607600533016941e+00 -3.2926584533862391e-01
      8.9581942460148911e-01 1.5302191729445465e+00
      6.0853060541646609e-01 6.2162959671404110e-02
      -4.5396680790088306e-01 4.0676472635299971e-01
      -7.0560337471156753e-01 1.1390734215807612e+00
      -3.7002097276705337e-01 5.8088235169090296e-01
      8.0978654777476566e-01 -1.1503356031537711e-01
      -1.1965090569117405e-01 8.9893507419186436e-01
      1.3338181298090315e-01 -1.1590598769463449e+00
      -3.6761525608911966e-01 4.8945362019139432e-01
      5.8650488167003745e-01 -1.5348579006495894e-01
      -5.3564332132066628e-01 1.3314920190461302e-01
      1.1270362922302988e+00 7.8095696069559239e-01
      2.8567980311650654e-01 6.2040116093411779e-01
      7.1685229975682030e-01 -8.0298113063392418e-01
      3.9404328257700416e-01 -9.6198180127337551e-01
      -2.2240979981321624e-01 7.9790112739599628e-02
      3.1089423533918570e-01 1.4816278152533771e-01
      1.5263532674208371e+00 2.2644027773727225e-02
      -5.5913478699850838e-01 6.2994816870896164e-01
      5.3048345162393662e-01 3.1742711528780310e-01
      -2.0211628242687565e-01 3.8720909812157136e-03
      2.8311941041136063e-01 2.8627245160354736e-01
      1.2834471279802656e-01 -1.0635156676132008e-01
      -8.5151075180179969e-01 1.5917265367453926e-01
      2.6160005906425904e-01 3.1014512247736459e-01
      -6.3313598759303225e-01 -4.8257066669810944e-01
      -7.6130379877121035e-01 9.9180630283232962e-01
      -3.0678196198992558e-01 2.0196379184237223e-01
      -4.4943540198299314e-01 -5.8468426308292221e-01
      -1.2718134643080273e-01 -1.3606916099896643e-01
      -1.5134101418584924e+00 6.5874141238971495e-01
      1.2656251526667521e+00 8.0616375408435179e-02
      1.0033180596671070e+00 -2.6732617294131879e-02
      4.3974411925124973e-01 5.3031287296975071e-01
      1.0588154580359710e-01 -2.2808768978934810e-01
      -2.6433304427324367e-01 -1.3410145638136775e-01
      9.0334806998425177e-01 -1.0154272821741805e+00
      1.0710429613187871e+00 -2.4537477376038611e-01
      -7.1498843287607594e-01 -4.2782558061919757e-01
      8.0839948072347789e-01 5.3395769253456993e-01
      -1.5290480807849911e+00 2.6106285588864897e-01
      -5.3111424755791378e-02 8.0959019887190431e-01
      -3.4259128562144081e-01 4.0476665615610080e-01
      2.9728976922774358e-01 -3.2371250047733463e-01
      -2.6628578172611811e-01 -1.1754893611299495e-01
      -3.8319678888996894e-01 2.3497981409110227e-01
      -2.2256119421080703e-01 -1.4428172388136817e-01
      -7.0586379639777097e-01 -6.5448299682176014e-01
      -3.4461693408663457e-01 -1.8754398688855867e+00
      8.4831394795236237e-01 2.4126698401849647e-01
      4.5325353569807886e-01 6.5692355510030698e-01
      1.6652173135636059e-01 7.1004830847323092e-02
      -7.3592537364557786e-02 1.7383301255902639e-01
      -6.8210027013514807e-02 -9.6593563868312318e-02
      -7.4046635842201658e-01 5.1922968881771270e-01
      -3.2349648957560578e-01 4.9903444676234565e-01
      -1.3523625809926512e+00 5.4738216315672916e-01
      -9.3889345760651299e-01 2.3560544354150414e-01
      1.7088776457631941e-01 -4.9401375951960858e-01
      1.1540449329327924e-01 1.9472584961612477e-01
      -5.7496396177901705e-02 -2.2623374127952312e-01
      -4.1919253992914107e-01 -3.6640894335212477e-03
      2.3595119211520382e-01 -1.7231567993676427e+00
      6.4798798927235046e-01 -5.6146824953056784e-01
      -4.3137006744850981e-01 1.1524229593566997e+00
      5.6698502052384414e-01 9.2861548217337997e-02
      4.5989240698657750e-02 -8.3215309970982621e-01
      4.0478938118400132e-01 6.7280500266233001e-01
      -1.3893638799729633e-02 7.1775399272578544e-01
      -2.0812704487049998e+00 -4.1730976530767816e-01
      -1.4722045032302089e-01 4.7472075105606221e-01
      1.5481185503869058e-01 3.3392123515272942e-01
      -2.1670560352810211e-01 6.8257707331553119e-02
      3.1759139495186106e-01 1.5990280362028314e-01
      -1.4834404223866460e+00 -1.0653974514577350e-03
      1.9116806107512413e-01 2.8595778075619466e-01
      -1.4487896702872882e+00 4.3578568448838162e-01
      4.0149277129982253e-01 1.0188602701283636e+00
      1.7450525018963717e-01 -6.0920246849321491e-01
      -2.7832817957808842e-01 8.4435763498855065e-01
      9.4731078197177920e-01 -1.5442094340550745e+00
      1.5963750017806005e-02 -2.9748880305472131e-01
      -7.4648963606432561e-01 1.5305237411532219e-01
      6.7948599074931990e-02 -2.4495142526731983e-01
      -1.6440854165055687e+00 1.3734929543118730e+00
      -4.6924784504454575e-01 4.7361567262648153e-02
      -4.6319144958477804e-02 -5.5287189977996432e-01
      1.3850727150008874e-01 5.9639075253320895e-01
      -7.9165700181992926e-01 8.1034562473631921e-01
      -7.4623918173064074e-01 -1.6244854648893514e-01
      -9.9915245826451449e-01 -1.5847468071943085e-01
      5.3156558138905452e-01 -5.3091787348512198e-01
      3.2277486078141110e-01 3.2093728086893375e-01
      -2.2269946999368981e-01 3.9542632587811549e-01
      -7.6238089619264338e-01 -9.3280627562689927e-02
      -7.8858468383973396e-02 1.2286157991898528e+00
      -1.4980568491672714e-02 -1.3275654676809325e+00
      4.7157008096213726e-01 7.5835108765690107e-01
      -2.3989263483655465e-01 -4.5676416941627573e-01
      -5.1229083262662145e-01 -3.6230506810194268e-01
      4.3525347969342898e-01 -7.6912786702750424e-01
      4.1668306874579991e-01 6.5749298044524040e-01
      -8.7628916223085906e-01 7.4475355083186956e-01
      9.1840620099504766e-01 -3.4396089637749178e-01
      -4.6262229078305012e-01 -1.1144138444832528e+00
      6.2274175622767991e-01 5.0003254660664620e-01
      3.5898606095519175e-01 -1.0053485366493078e+00
      -1.8984101719729857e-01 2.1159968137762172e-01
      -6.4882768953173320e-01 -2.6139307287482244e-01
      2.0875926597233647e+00 -7.0211006636790849e-02
      5.9262753186562690e-02 3.8767340966587860e-01
      -1.3314045504380521e+00 -7.8605148525912261e-01
      -1.9090880969134971e-01 4.0177369145394998e-01
      -6.1621698820762916e-01 1.1970354550376383e+00
      -4.6928201205314446e-01 -4.5873876785837614e-01
      -8.6682225182745731e-01 7.7909200226199971e-01
      1.5837478474107332e+00 5.4940053767962449e-01
      -5.7426433264424770e-01 4.0371768553464721e-01
      1.2768950509949728e-01 2.9707410906442172e-01
      7.5518925684449467e-01 -5.2506577850459979e-01
      -4.4746133272564487e-01 -1.1063303906468913e+00
      -5.5322410441694547e-01 9.8833026484054209e-01
      1.2851927934801735e-01 1.8172808897404502e-01
      8.1727438792971652e-01 -9.5898887987036263e-01
      -9.6481173571214196e-01 -8.4686746748049202e-01
      7.3640340268905613e-01 8.6384260736823559e-01
      4.3055647182786738e-01 -2.5396873746312898e-01
      -9.6074958600610560e-01 -2.5636701128124539e-01
      -5.2398332304575551e-02 -1.8685035786722681e-01
      2.2518221975332878e-01 7.8492931150762035e-01
      2.6732448407278042e-01 1.1549002652833232e-01
      -6.7794238755563507e-01 -2.1743336477375030e-01
      -1.1378038913427661e-01 5.3938879173526078e-01
      -9.6375033402459465e-01 3.2395249861502756e-01
      -3.4928310444369731e-01 -1.1491237104079413e+00
      3.5774584500663331e-01 -9.7294535229553336e-02
      1.4755256270438986e+00 -7.1615622977851834e-01
      -1.6422811643030480e-01 1.7067826332833691e+00
      1.9487402817667876e-01 -1.8393807287116690e-01
      -8.4443296722558936e-01 -4.5622317320056543e-01
      2.1592790836019971e-01 -1.3240687784839333e+00
      -1.2103985206836536e+00 -8.4354490721242403e-01
      2.4267075111543912e+00 -4.5073180806854374e-01
      4.0512823473136528e-01 -3.0923109336897231e-01
      2.2483945444437844e-01 1.1656032105086471e+00
      -2.3360158619231430e-01 9.8685206065047060e-01
      -3.5742259155645345e-01 5.8518709072154573e-01
      4.4212914562621330e-02 1.7557719883268136e-01
      -1.2528338337247508e-01 3.0312294957217834e-01
      -1.3251212661563061e-01 9.1521272028423906e-01
      8.4748929088249214e-01 1.5026350854482923e-01
      4.4386742426641181e-02 4.8698510990466770e-01
      -5.0060532365834376e-01 1.6461580492634703e-01
      -6.6901172954642110e-02 -1.1194094960403687e+00
      5.0479856752529206e-01 3.8868808440029168e-01
      1.2020831786097534e+00 -5.9676037465181331e-01
      7.8898047593046849e-01 4.2192823341558394e-01
      -1.1191446020175346e+00 1.2921455334819807e+00
      -8.4038021928076231e-02 9.8312625201806914e-01
      -2.5876650343966934e-01 -7.9452605873590321e-01
      -4.1810266272573622e-02 4.9584184741029824e-02
      -5.8127596591136033e-01 -9.2781926986737928e-01
      3.2100107537311595e-01 -4.5221429729540324e-01
      3.8035722686910312e-01 5.6218146378324785e-01
      1.3459106378662289e+00 -8.1201361498666677e-03
      7.4787201658425784e-01 6.6550731366173982e-02
      -5.2620805662582100e-02 -7.2800360305459699e-01
      -1.0356849679871412e-01 8.8725362092605531e-01
      4.8807717973274994e-01 1.8072717591259819e+00
      -1.2756327468809019e+00 1.0465335207820092e-01
      -1.0236048577049535e+00 5.0099541336291775e-01
      1.5280096915168895e+00 8.1717563728642073e-01
      1.2815620464879177e-01 6.8357639629445466e-02
      -1.7479916880167262e-01 2.1325316556075530e-01
      -2.0801848610829715e-01 -7.5710185630066862e-01
      6.1046823103990389e-01 -1.4749423438670786e-01
      -7.1144412921305411e-01 6.1639918958784001e-01
      7.8027541420129443e-01 -9.2599970179386981e-02
      4.2176638507254727e-01 7.1456781995942631e-01
      1.2954648959897241e+00 -3.0360715764458857e-01
      -4.5909328499901547e-01 -3.5100901373116683e-01
      -9.7002377873503742e-01 -1.6588933528608588e-01
      -4.3135960719374222e-01 5.6325492147125372e-02
      6.9157156556517330e-01 -3.6145953469523723e-01
      6.0233333472274242e-01 2.5646815448250326e-01
      1.1618342402171944e+00 -6.0643076548122399e-01
      3.2465493414387042e-01 -2.1736643635056021e+00
      1.0342758357423538e+00 1.9827492704390373e-01
      -1.0998746051527750e+00 7.6639157687468729e-01
      1.1192668292084648e-01 4.6791901084968557e-02
      9.4497422091733882e-02 5.6249082478420176e-01
      1.2026561541143972e+00 -1.5336521502184650e-01
      -1.2484560648031189e-01 1.8625039525544126e-01
      5.6526506115254471e-01 4.6888499312034637e-01
      2.4601875456208258e-01 7.0296281779415903e-01
      -8.8151640882575988e-02 -2.4400115940151293e-01
      -2.4429061568535340e+00 6.6689722283293240e-01
      -3.0799054934527492e-01 3.1800043586151705e-01
      -3.9663390957478631e-02 2.0020828459712711e-01
      -1.1464460031906867e+00 -3.2368426509012632e-01
      -5.5672295513320658e-01 -5.3394933409384859e-01
      1.4257809348724473e-01 -8.1070409072057947e-01
      4.0524279326880674e-01 -7.7606769530025099e-01
      1.0432070118031960e+00 5.5367700858353963e-01
      -1.0579705307716130e+00 -1.4239605282691379e+00
      -8.1743020105545461e-01 -2.6829654031026007e-01
      -4.8680658113581007e-02 -1.7561388949791074e-01
      9.3013983054764682e-01 9.3780899866935363e-01
      -7.3853904883345023e-01 2.3915177933813792e-01
      2.1505567968179249e+00 7.3136104443506011e-01
      2.0685989888198439e-01 -2.1688594048956563e-02
      -5.2254886288942159e-01 -1.2513400459977278e-01
      -6.1388255927287272e-01 9.7143466246428523e-01
      -1.5623357390927461e+00 3.6060495089975880e-01
      4.0415603402067024e-01 1.2147401267130189e+00
      -8.8745656285700469e-01 6.5944479834887337e-01
      -4.9325900246155113e-01 1.1462019367648788e+00
      -8.7263172304706937e-03 2.6160523631418797e-01
      1.0588860911638212e+00 1.6051378951384310e-01
      -8.7584477239815009e-02 4.0031235620249635e-02
      1.2651530919558487e+00 -7.1943925283024213e-01
      5.4600689057538543e-01 6.1936798875898015e-02
      1.1437308990265784e+00 -2.0666179533488779e-01
      6.2030545304103844e-03 2.2781791516278119e-01
      6.0260577720294817e-01 -4.4606029088237698e-01
      4.5161513009624565e-01 -2.7253371644331309e-01
      -2.0477442879602872e-02 -1.2000737523357741e+00
      1.3120484715637243e-01 9.7480987913253891e-01
      -2.0152471001831651e-01 -2.1624619450367880e-01
      4.1051503679314505e-01 6.4189234175209020e-01
      1.8357203340799417e+00 2.2651423288647377e-01
      1.3810730529888812e-01 7.8378688603074689e-03
      -1.1825144923988078e+00 -1.4281280884599504e-01
      -7.5832339022834105e-01 -1.0900255509176875e-01
      -1.4034484135655451e-01 -3.7454345649575321e-01
      -5.2987045508294839e-01 -3.3304342190708669e-01
      -1.1080174356082583e-02 3.8924183901693865e-01
      2.5542805432935252e-02 -4.1080927457449018e-01
      -3.7871469976861430e-02 1.3100005432801573e-01
      3.2660588677293684e-01 2.6190256274037033e-01
      2.0801418557838325e-01 -3.3865956688905002e-01
      8.0326346908892532e-01 9.4208858594738221e-01
      6.1338009290220663e-01 9.1280802348028589e-01
      -6.7500936850857152e-01 -1.9721525280972207e-01
      3.1025579511737111e-01 -5.7324663793581021e-01
      9.8867591524215725e-01 -4.3881015527019956e-01
      3.2414552013816639e-01 1.3571697003631297e-01
      -4.5838586871531922e-01 1.2254910741885259e+00
      1.6386501589416820e+00 -5.2479103261258242e-01
      5.1603026263083374e-01 5.7255785306192290e-02
      2.2959271821086605e-01 4.0263007445493665e-01
      -9.0011736015346555e-01 7.0541241092043139e-01
      7.5330672201615612e-01 -8.0104962572545235e-01
      8.6941677819280616e-01 7.3824209461757651e-01
      4.3399523030872389e-01 1.3292120430544488e-01
      -5.0139300883373072e-01 -9.6482510299057478e-01
      -8.6965475789970859e-01 4.1306198551126688e-01
      2.9716345758094631e-04 -6.8168914654699597e-01
      -4.8490786967546362e-01 2.4171696843664559e-01
      3.9023591307245759e-01 -1.1418561145589873e-01
      2.0889284695606725e-01 8.1210561391053837e-01
      4.4887517986019032e-01 1.4516621128923568e+00
      9.4751610684908200e-02 -5.8207312210250484e-01
      -2.7552328513806134e-02 1.1935220969104163e-01
      -1.2515772905557188e-01 1.1905176751062698e+00
      -5.5591875920221845e-01 6.4573178843548784e-01
      -2.5728619115178747e-01 4.7208818052479534e-01
      -7.0616404397312971e-01 7.6865197901088089e-01
      1.2946077052421190e+00 1.1128767380493394e+00
      -5.4542878386205373e-01 -2.8314917363087477e-01
      -3.1958123449300962e-01 -1.2978791431567334e+00
      -4.7259693494416966e-01 -1.3387532937510058e-01
      2.3435508465815277e-01 -3.5464390272503983e-02
      5.0340823176389338e-01 -5.6414502064920102e-01
      -1.9368745528042489e-01 -8.6908678696733510e-01
      -2.2933128380348930e-01 2.7261033337422993e-02
      -5.3847207967590116e-01 -1.5669983830139849e+00
      -1.3199096333140187e-01 -7.1818727651173131e-01
      -8.7625568972209866e-01 -1.1821866350623010e-01
      3.9580698643107565e-01 -1.4661414610781626e-02
      -2.0072828635842338e-01 9.4573716332938362e-01
      8.9059235207537635e-01 4.8778730089217837e-01
      -5.2535278859665979e-01 4.6780890149240396e-02
      -1.2079124724026533e+00 2.4939934322652832e-01
      2.7301975995662142e-01 4.7389482432177521e-01
      2.1353771450454123e-01 -4.6340808583706994e-01
      -3.7870784068769042e-01 7.5276655784668467e-01
      -4.5075293602099592e-01 8.5811724600493716e-02
      -1.5802285876082955e-01 9.8221648530529304e-01
      1.9241933081241158e-01 8.2385202862429407e-01
      -8.3023929584724221e-01 -1.1518786419179710e+00
      2.4190503202460849e-02 -5.9851872589529365e-01
      -5.2574266092223743e-01 9.8131905293160820e-02
      4.1790442238725356e-02 8.5559682153100103e-01
      -4.2749979517155984e-01 -4.4862677931987538e-01
      -3.4597975803418807e-01 -3.3757503551687289e-03
      -2.7030144312971613e-03 -4.4749819457158485e-01
      9.6470082353670550e-01 6.5173139595378704e-01
      -5.6795466097932490e-01 -7.1505347463405655e-01
      5.4197004403306115e-01 1.0191756521538951e+00
      2.1143702432627171e-01 -3.6452650200453623e-01
      -1.1105884231735201e+00 -8.6508158301559432e-02
      -1.2982169402760071e+00 1.2582579730169650e+00
      -3.9741824874994519e-01 1.2021056696256278e-01
      3.3886961699510565e-01 3.3329513368814123e-01
      1.0252522972924454e+00 -3.5281646241770759e-01
      8.6466801893858997e-02 -5.7323511792737014e-01
      -3.9612450660257079e-02 -8.4471696398658180e-01
      -5.2587485122978384e-01 2.3554017513113204e-01
      6.8072710588196039e-01 1.6066009221117444e-01
      -9.4337123550482616e-01 1.0638649650426840e-01
      -1.0138993067214426e+00 4.3032587998220606e-01
      1.0112191360439438e+00 -9.4134932571670726e-01
      -1.4994328933101361e-01 8.2307316809599274e-01
      -7.4201053713138815e-02 1.3623058267892793e-01
      6.3392287670021030e-01 -7.5234149817262552e-01
      -6.7788066526569302e-01 1.2393043765209502e+00
      1.5517417781359897e+00 -7.1116513912791346e-01
      -4.7268186002550711e-01 7.0402934287324659e-01
      -1.8981954676793605e-01 6.9366915511402305e-01
      -1.8776352638428839e+00 -3.5157554551053993e-01
      2.2158269073642703e-01 1.1724979582333526e+00
      -5.4232553804786732e-01 2.0314304936012566e+00
      1.7644148348615216e-01 1.4181367716014989e-01
      2.6655922817267226e+00 8.6132045159302464e-02
      1.4087073851845988e+00 -3.6585046190436143e-01
      2.4455064450061503e-01 -1.3454648393668671e+00
      -3.8682370518339293e-01 -2.2909493702501202e-01
      1.5735735344766288e+00 1.8253668788452619e+00
      1.6154346985163834e+00 3.6433301315463552e-02
      -3.8682671715028133e-01 -4.9866653034401609e-01
      -6.3656009653265688e-01 -6.1472592073895804e-01
      -5.6529254545592023e-01 -5.4972290902417020e-01
      2.0321645130482657e-01 2.7317141609551376e-01
      -4.5404027988894574e-01 8.0777854321964304e-01
      1.0161889510727200e+00 -3.2790521145335205e-01
      2.1103459341602443e-01 3.9749270685075172e-01
      2.6092773407437808e+00 -1.7954198173474908e-01
      1.0440362750981332e-01 -1.1172211606077567e+00
      -1.6295519365142230e+00 3.0786025974181397e-01
      -7.7434372158921827e-01 4.0174729105621393e-01
      1.1977840119588012e+00 -2.0675450991375563e-01
      3.0986248288761936e-01 -4.4614855061500641e-01
      -6.0723986112880601e-01 2.6274380833110711e-01
      -5.9818479462192897e-01 2.0965598473546079e-01
      -3.1775583692881249e-01 -5.1818276623998594e-01
      1.2960096685487396e-01 3.5794101241452200e-02
      5.5018686551906848e-01 4.8415119035953497e-02
      -9.5291845233172845e-01 2.6496735115040266e+00
      -9.9381014603593043e-01 -2.2771886115030313e-01
      7.8411798348281025e-01 9.7112227711006482e-01
      -8.5004014733282507e-01 -8.2245377406941989e-01
      2.0387585586290925e-02 2.0648398222473108e-01
      -2.7800662959102740e-01 7.2431971805347817e-01
      4.9490221751544598e-02 8.4931088573149138e-01
      7.8455118063334794e-01 -6.3025496954032134e-01
      -4.1872755242263321e-01 -3.1208753124216942e-01
      -1.3633228820229548e+00 5.5969239314639063e-01
      8.4285695171191333e-01 -4.3393920251657669e-01
      -1.0108584180687381e+00 -4.4545936614889853e-01
      -2.9323401412101147e-01 -7.2706608915581616e-01
      1.0066032810703340e+00 -2.1693902985257948e-01
      2.2899592346500772e+00 -1.4291357197857650e+00
      2.3470849804075128e-01 -6.0388667133740570e-01
      -1.2974966171716924e+00 -1.1436429222042285e-01
      1.0729682024968816e+00 1.8886759305361914e-01
      1.7512382478713406e-01 4.4114107844377359e-01
      -1.8440713100651662e-02 -5.8250926543305337e-01
      9.5072646034511821e-01 2.3149549281362716e-01
      -8.9741280740578633e-02 -8.1346730968148473e-01
      1.0049471126667078e+00 4.3753976366716257e-01
      -1.4039065158251895e+00 -8.7121684688510614e-01
      -4.0711291190978954e-01 1.5165355459928379e-01
      6.2997051523037761e-01 -1.9615459788458312e-01
      3.6344776621780472e-01 4.8612951202079352e-01
      -5.1364291904842230e-01 1.3008364652358537e-02
      1.5928611471751297e+00 3.2074703330754288e-02
      6.2939738560779793e-02 2.8753765653525121e-01
      -1.9986600558671413e-01 3.1922347010118352e-01
      -8.7936069264217920e-01 -1.8188374626355999e+00
      -1.8360912729057000e-01 1.3273592452275987e-01
      7.4952048417221195e-01 -4.1906150851591195e-01
      3.0898280083020150e-02 -1.5380234943362676e+00
      -3.7553536398849263e-01 2.4597122831321580e-01
      8.2341865790119373e-01 -1.5831253520907398e-01
      -4.5961469385634274e-01 -2.9034968577148623e-01
      7.9015051417369331e-01 -2.3231976162313586e-01
      5.2810287031388292e-01 2.4120324246170374e-01
      5.4471965302622616e-01 -1.4362937336907208e-01
      -4.2476580578819767e-01 -1.9467863058202850e-01
      -5.1701577430068912e-01 -5.1080130041176966e-02
      -4.0292033321938786e-01 6.6589196659428251e-01
      -2.4537001766107372e-01 -6.4503701457681650e-01
      1.2580312701272167e+00 -3.5275876088749708e-01
      -2.5594064274086537e-01 7.7001091979948472e-03
      -1.4254922639532627e-01 -1.4717824404630322e+00
      1.0086939084499036e+00 8.3364131293680299e-01
      1.5030725138794684e-02 1.1337924912709356e-01
      -9.7345275672535994e-02 3.1682020275020384e-01
      1.2622769696978993e+00 -4.5442057393955165e-01
      1.7584797919141948e+00 8.6913766894349431e-01
      -2.1807935426410832e+00 3.7084440104152405e-01
      4.2737698308078181e-01 2.4495031090727382e-01
      2.5026555045795090e-01 4.2421286370346964e-02
      -1.9690242612488981e-01 4.3236594452785787e-01
      -6.9144671020492843e-01 1.7257116906986017e-01
      5.5988509771910144e-01 -2.0305124928296379e+00
      7.2639324606452171e-01 1.6102557522842111e+00
      -7.9793195417477703e-01 -6.9585411901144500e-01
      4.2400689878894821e-01 5.2738067982553483e-01
      3.2889523844040180e-01 8.5167183741329630e-02
      -5.6996254624967602e-01 5.4645997789187195e-01
      -6.8650943128308672e-01 -2.6229946721469904e-01
      1.2141593250854804e-01 -1.3408148042930876e+00
      -5.8910657611804272e-02 2.8557818647419586e-01
      9.6168961817152648e-02 -2.8768237984728173e-01
      -5.6240936810711635e-02 4.8739123798474770e-01
      -1.7064994594760921e+00 -3.9953248104366124e-01
      -4.2515129251755374e-01 8.7021785728270307e-01
      6.1221169258772346e-01 -4.1581039299290312e-01
      1.1039215201628556e+00 -5.8001413056935597e-02
      3.2933506581035771e-01 1.7730040684176263e+00
      1.0043477697757512e-01 -1.1578268773382030e+00
      1.3764681925738975e-01 -1.6494634587173906e-01
      1.5982307460413755e-01 -4.1929744532692652e-02
      1.0295872316260046e+00 2.3995288646250215e-01
      2.1935822399583426e-02 -1.1064228901422384e+00
      -5.6451983238061954e-01 -4.0442333870235077e+00
      5.5459862308390639e-01 4.6902565458142381e-01
      1.4996000128215016e-02 -2.0329086759275063e-02
      -1.1764762895142733e+00 -8.5154344356813641e-02
      6.7687434677588099e-01 -4.3067588815618113e-01
      -2.6557894674238020e-01 1.3850772405839995e-01
      3.8985899217050135e-01 -1.0708774326829651e+00
      -6.1983631873496436e-01 -4.2471880789549421e-01
      4.5647513142925999e-01 2.6862176456914144e-01
      2.0265398507083554e-01 -1.4408072703392283e+00
      -1.9256231045610650e+00 -9.6887282404236730e-01
      -4.9257909554930884e-01 -2.2953239364109495e+00
      4.7860703786917175e-01 -1.9523155593355138e-01
      -3.8491016566977859e-01 3.5707195466900363e-02
      -5.3304811725094858e-01 2.4179475823917271e+00
      -8.8304567915783561e-01 -2.0630573763882158e+00
      -5.6235961920938615e-01 -1.9374552736352854e-01
      -1.0348781392500093e+00 -1.2966747642534751e+00
      -1.3364058924882656e+00 1.0745893907751725e+00
      -1.0243715342575833e-01 3.9496510857078215e-01
      -1.0317499895895779e+00 -6.9823688092581611e+00
      4.0916915080748523e-01 8.4107520500239397e-01
      -1.3684612910380913e+00 -6.0302552114486618e-01
      -1.3094188631163112e-01 -7.9260964625502181e-02
      9.4785994499294801e-01 1.9936485769932849e-01
      -2.6254787356279414e+00 -1.0089947959452195e+00
      1.2697612705166352e+00 3.0105719950491899e-01
      5.0283087704313423e-01 -6.3952910014054998e-01
      1.1123566498996196e+00 1.1935409661006055e-01
      -3.7991371830938098e-01 -2.5423118029913625e+00
      -3.3652676494510163e+00 1.6577558836226889e+00
      -4.6727762061550782e-01 -1.8845362337084381e+00
      7.5981535694274471e-01 -5.6199154563749831e-01
      3.9085206193518757e-01 7.5495236917758524e-01
      9.7434149450900720e-01 2.3271873125528444e+00
      -2.3051946701145318e-01 -1.6848051391568135e+00
      -7.2324970547057077e-01 1.2363084929389032e+00
      3.2238998054660362e-01 -1.1871204059959110e-01
      -1.9769628814084150e+00 -8.9129884315968932e-01
      8.1166236538040937e-01 6.7389352654568879e-01
      4.1632554671505456e-01 -4.4099522610504405e+00
      -7.8652997843917583e-01 -1.4294814209087809e+00
      -1.9922333655053155e+00 2.4347637251160217e-01
      -6.1081787588270331e-01 8.8422151800664928e-01
      5.2011053033511678e-01 7.2700556823797668e-01
      7.6670752681409360e-01 -8.5501394216791138e-01
      2.2999669206759596e-01 2.0820223148344859e+00
      7.6460446474832466e-01 8.6393696475742709e-01
      6.3909474024466895e-01 9.9740843869418561e-01
      -2.3235693944167197e+00 -1.8121770584915677e+00
      -2.5901200545351601e+00 3.4857399646162333e+00
      -4.0857109798084584e-01 1.7149019603200991e-01
      -1.8304875087856161e+00 7.7264842009664525e-01
      -1.0930931632062841e+00 6.4254567759604153e-01
      -7.9455653524682923e-01 -1.9151356484375850e+00
      -2.3074416903439383e+00 4.5593254190079280e-01
      -4.0788976825932444e-01 1.3532036842570538e+00
      2.2918802012668831e+00 -3.6696711059571074e-01
      -1.3808674613090560e-01 -2.4419449376370008e+00
      2.6882003364331930e-01 4.1888930792286940e+00
      9.3725506928079927e-01 2.3067664224520059e+00
      -8.4236744124295082e-01 -3.1190346945764338e+00
      1.5751458242621122e-01 -1.0802470081387487e-01
      -1.3423278118733821e+00 2.4096054146770235e-01
      -2.5849317902883778e-01 2.2146316272266677e+00
      4.3535674483714670e+00 -9.9682714075436177e-02
      6.3481953759592064e-02 1.3105495930832534e+00
      -1.9993895263387589e-03 1.1805487607575793e+00
      1.1627117771476210e+00 3.3161965131808313e+00
      1.8687311559969186e-01 1.4006645202844408e+00
      9.5663844099015538e-01 -4.9462030535313467e-01
      7.1193064917455628e-01 -8.4890850116745065e-01
      -5.5988407105182691e-01 8.8676166110618307e-02
      7.7454465848045662e-01 7.9358694129731500e-01
      1.1702468406747182e+00 -1.9156188433532535e+00
      1.7431712259565642e+00 5.9582219871551556e-01
      -2.3661875004733310e-02 4.3974695482535237e-01
      1.3667896084280626e+00 -1.3062320666706955e+00
      -7.9758871659120900e-01 -1.6090986636877338e+00
      -4.3831541251977674e-01 2.3420152611608342e+00
      1.2895780107825932e+00 8.8911081366959388e-01
      -1.0930953048244778e+00 -1.6913759231311367e+00
      2.6108062197566461e-02 -1.7691877974799014e-02
      3.3658257624321164e-01 7.4618702964583827e-01
      -8.5163823110516046e-01 8.7642010065474441e-01
      3.4516899437194577e+00 -8.8038515376193360e-01
      1.2287735318283242e+00 -1.9614629598923143e+00
      -2.4540520360423965e-01 -2.8493196985560620e-01
      -5.7129782119969619e-01 -1.9535581278782601e+00
      3.6727928343384442e-01 3.4416588337795861e+00
      1.4548908715023237e+00 -8.2983264919960609e-01
      6.1621150623063536e-01 6.4455200768749632e-01
      7.4652320483516343e-01 -1.4567975643939421e-01
      -1.1237140592538006e+00 1.3455766675707146e+00
      -1.3250812722826704e+00 -4.1246383425051569e-01
      1.0502882792901298e+00 -4.7671171157732761e-01
      -3.4651921375416012e-01 1.5955967931523565e+00
      -6.9829262210587817e-01 1.1150227863114872e+00
      -2.1165801379042670e+00 -2.9208118499745395e-01
      4.1656810261781774e-01 2.2859416132824082e+00
      -6.4547097286864946e-02 -1.9307501080639999e-01
      -3.8464453505774121e-01 -6.6656825238443596e-01
      3.0243636142496766e-01 8.4581872004692926e-01
      1.7227074598468406e-01 -1.6499684006411355e-01
      1.6321887343404715e+00 -3.3855599504636408e-01
      1.3352771234460543e+00 1.2885277847667747e+00
      1.6012763529434078e+00 -1.2329669517066537e+00
      1.0537643787926392e-01 -1.1253171395426402e+00
      -4.5261428354853073e-01 -2.6600474687035862e+00
      3.7302195392750714e-01 -9.1476975678597094e-01
      8.5520067230829722e-01 -1.8225358045326701e+00
      -1.2035381497828850e+00 9.9740386650516222e-01
      1.0984203082695686e-01 2.1293216176242621e-02
      7.9922205208062047e-01 5.2196098542222924e-01
      -1.8142357087572112e+00 1.3505637997032668e-01
      -8.4497751773642082e-01 -1.6018688245408796e+00
      -2.4431463798142200e-01 6.6207826827006122e-01
      -8.0971788993140315e-01 6.7849679164013199e-01
      1.6677426193820519e-01 -5.6990156959997362e-01
      -3.4623618433213904e-01 1.4896997017074329e+00
      6.2381456818201064e-01 -1.1372389904605997e+00
      -7.6449871090342336e-01 3.1794086774529124e+00
      3.4101645918160500e-01 2.1496800484456494e-01
      -1.1468765661026366e+00 -5.1726688003460031e-01
      2.0234110981522142e+00 6.2968349440791604e-01
      -6.4482820301131560e-01 6.8475309226144720e-01
      2.7742505737555136e+00 -1.4572630268921820e+00
      -4.2891654143934310e-01 -6.5554530514108089e-01
      5.6140383033763763e-01 -1.5770034262584731e+00
      6.6204972997101286e-01 3.5323062908368408e-01
      -4.8194285709061652e-01 -1.7483766384366348e+00
      3.7956571708671821e-01 1.0955660324566492e+00
      -1.3404660144597760e+00 1.5045516690360949e-01
      -6.4716230334296454e-01 1.4900027716928144e-01
      -7.2604952544769630e-01 1.1010478113533867e-01
      1.2690543206544400e-01 3.5895897126020732e-01
      1.6056068758216935e-01 4.8788949634544271e-01
      -4.2047773753643275e-01 2.4621666018421021e-01
      4.6271300765519741e-01 1.2054591550958074e+00
      -8.2900190962432363e-01 3.9579903340112930e-02
      2.6348732837392419e-01 -7.0226427498545185e-01
      -8.7798338836399503e-01 -1.0529859317387338e+00
      -1.2021266289323271e-02 -1.5909111109901669e-01
      7.5072654921233906e-01 -1.2172288079082940e+00
      1.6035884225782386e+00 -3.3367066066248624e-01
      -3.5018734906957638e-01 -1.3939288280357509e+00
      1.0608416180771134e+00 9.9439164408339623e-02
      4.3742035024710848e+00 8.5942297681520397e-01
      -1.5435031165776771e+00 -1.1712618760309141e+00
      -1.2725082965577574e+00 -9.6390983325116267e-02
      -6.3630969225349632e-01 -3.0165740097116372e-01
      -3.8378159305570557e-02 1.8684245219952611e+00
      -3.1685000908859755e+00 -2.8474800830799313e-01
      7.0364621437867403e-01 1.0126019872184002e+00
      -7.6409434284362143e-01 -1.0539110634041315e+00
      2.2685668503136820e+00 1.5040411890194043e+00
      -6.8910123106322518e-01 -8.9290557076000254e-01
      -6.4296639878525672e-02 -9.7364739363187836e-01
      -1.7141684882169486e+00 4.8321289509106535e-01
      -3.2667759067705635e+00 -8.5349946083647610e-01
      2.2256310188951411e-01 -2.9964011866640616e-01
      1.0587206757065544e-01 -1.2215681659623063e+00
      1.8241370488897571e-01 -5.9356710562966442e-01
      4.4121265324606540e-01 1.8267808110375796e+00
      -2.4609613135383668e-01 1.7101190162248960e+00
      -3.3557728435813450e-01 -4.5770238228740228e+00
      -7.9604452377770274e-01 6.3866598507035621e-01
      2.2803132299931708e-01 1.1512811999242036e-01
      -1.7304394052533575e-01 -6.8234692110967898e-01
      -8.9934978372722241e-01 2.8260309185879101e-01
      -2.4561189400258615e-01 1.4670644462622222e+00
      -5.2168531194745482e-01 3.2718761190084428e-01
      7.7237942794732117e-01 -1.3194075731481176e+00
      -4.9564854932818025e-01 5.8764727981278131e-01
      -7.3094734264759109e-01 -5.3661033484774756e-01
      -5.5683510970690309e-01 -3.5447028802478669e-01
      7.6356703691369578e-03 -9.0306481352445045e-01
      2.3054318718883660e-01 -6.3033232388976301e-01
      6.8075940394183942e-01 5.4039154141600365e-01
      1.1218727319705197e+00 2.4211199665845237e-01
      -3.1784138464956790e-01 -1.4098778755706959e-01
      -9.8929200368659886e-01 -7.8930641567554893e-01
      -2.3232566866732052e-01 6.8268356014988618e-01
      -8.8531905057862736e-01 -1.0152225025544148e+00
      -4.4932456552444350e-01 9.2556478462365877e-01
      -1.1671269567155913e+00 -7.4596356834498134e-01
      1.1080734140971393e+00 -4.3702344650935948e-02
      1.2928224700972173e+00 9.3982711306020239e-01
      -3.9970693636229992e-01 7.3586521205294897e-01
      -8.7099589890592466e-02 -5.7867787890374167e-01
      1.0543598464424204e+00 8.2742830116163280e-01
      5.6794905407160342e-03 6.6143923510419000e-01
      -1.3039284855706576e-01 -1.1054648463158754e+00
      -9.5551221362370586e-01 -7.7176380175523651e-01
      -8.5919564711094305e-03 1.1839924690978301e-01
      -2.3512824695929178e+00 -4.2691567907379468e-01
      4.7518352804181330e-01 6.1595626322793595e-01
      5.9191611333251792e-01 1.1131261015431295e+00
      -6.0378719105655128e-02 -4.2531495621048365e-01
      -4.4752046077741942e-01 -7.9462109298169312e-02
      8.4899739525802528e-02 -5.0301883426662297e-01
      -1.4600087967427475e-01 -9.3420064332095243e-01
      -5.9327363301508640e-01 -1.5435580237540769e-01
      -3.9040013115216055e-01 4.1813640886381603e-01
      4.2703692679137534e-01 3.8562385025359622e-02
      1.4711117679495163e+00 -7.8156919746460696e-01
      1.5743284040663914e+00 -1.5740230288547397e+00
      1.2376763048335077e-01 2.2137613998050276e-01
      6.7657903484311027e-02 -5.1584593995845840e-01
      -1.8375147593362381e-01 1.1746944275662636e+00
      -1.8243292083443363e+00 1.2042706870551964e-01
      4.4077904824171094e-01 -6.0934776027887556e-02
      -2.9307390383398529e-01 5.2867088304220322e-01
      -1.8597816949957311e+00 -9.0139258062739391e-01
      1.3575732659455868e+00 2.5424784071333377e+00
      -2.9899406920081634e-01 -8.2479968469994924e-01
      5.7842432703375302e-01 2.2069792791340919e+00
      -1.4565376078484138e+00 1.2161566355320819e+00
      -8.1821571761045186e-01 5.9549333553225836e-01
      4.3310280771005433e-01 6.7579056830469486e-01
      -8.7182116421621847e-01 -9.5559474842856609e-02
      1.0243437654520919e+00 3.6341161241611472e-03
      -1.4205394825694280e+00 -5.8358920400960845e-01
      -1.4258105026535195e+00 9.0021110725752751e-01
      3.5555182511111277e-01 9.2306526824570467e-01
      -6.6382766209340605e-01 -1.0531626181884788e+00
      9.6794356119194325e-01 1.1329407604860984e-02
      1.8186892669891161e-01 7.4643812390348063e-01
      6.7418091813225245e-01 -1.1567297330981794e+00
      1.0326674047483422e+00 -5.0546600183548462e-01
      -1.5876713650465817e+00 -3.1331316591028535e-01
      6.5494030559815308e-01 1.5191806758363551e+00
      -5.2268114815373956e-01 -1.9973935417615021e-01
      -1.1906367079214593e+00 -8.8763129547823705e-01
      -7.5107964351505574e-01 1.9584526605799693e+00
      -6.1431777940166921e-01 9.4592639892922792e-01
      5.4530219750238274e-01 1.3830225813049188e+00
      -9.6633829919708869e-01 4.6497204577419433e+00
      -3.2405248359511235e-01 6.2167442797733463e-01
      -1.5870722596228715e-01 1.9453727957924483e+00
      3.1643143281599301e-01 1.2555713907064989e+00
      2.3426405881237261e-01 3.0409228678685110e+00
      -2.6712196760578695e+00 -5.8990828147485186e-01
      1.2431471633715736e-01 -9.8021971347841363e-01
      1.6820094031974921e+00 1.1267877214093889e+00
      1.6693373796141868e+00 -1.9216729401097270e+00
      1.4909243553221074e+00 -4.4584432432172438e-01
      1.5503366806524665e+00 -3.7229050092013288e-01
      -4.9603460033733665e-01 -1.2623936696583455e+00
      7.2667270400196493e-01 -1.8625573986868118e+00
      4.6902306098710128e-01 1.1602811607362398e+00
      -4.3347148447471229e-01 -1.3005621521899961e-02
      -1.5804179430900742e+00 6.6206293674725425e-01
      1.1776317961083675e+00 1.7116748522764191e+00
      1.0550315400090609e+00 -1.3650880379452404e-01
      7.9828858125818003e-01 -6.7138376575160319e-01
      1.0069274796675558e+00 1.8779666807849849e+00
      9.6285265966590505e-01 7.4289882641127625e-01
      -2.4654432630351913e-01 -8.7894053571451011e-02
      -3.3854266180192100e-01 3.1438456031398649e+00
      -2.9242256512486325e-01 -3.0220734434115509e-01
      -1.4792157666025849e+00 -5.9332481130422854e-01
      1.7920522558233953e+00 -7.4266302960051378e-01
      -4.6083504678078618e-02 4.1109266096597968e-01
      7.0135277072801083e-01 -1.9799021354440111e-01
      1.0085330581496068e+00 -1.3030754775188997e+00
      4.6664107758796602e-01 2.4872097216630451e-01
      6.7176669933188315e-01 6.5954480860700948e-01
      1.0410066768633037e+00 1.9713393067907381e-01
      -4.5712206025545477e-01 2.3513761935272610e+00
      2.5248803410126530e-01 1.4408013015244396e+00
      7.2847739120178190e-01 -5.4664884023260230e-01
      2.1925374753732760e+00 2.0263415558381542e-01
      2.6205634351645712e+00 1.7645580757129469e+00
      6.4596750667617386e-01 -2.0214583362066572e+00
      -8.1038002299431575e-02 -2.1409550889517619e+00
      -5.8020964501957295e-01 1.1365774331158438e+00
      8.1171388276838685e-01 4.3884480272863591e-01
      -1.3986489712627954e+00 1.1704502703176048e-01
      2.4754109519570769e-01 4.5701624598675279e-02
      2.8882144125020232e-01 -3.6942429405635688e+00
      -6.7282534691776541e-01 -4.3847845242548295e-01
      1.7513091943985037e+00 7.8530083661572925e-01
      -1.2358516925181100e-01 -1.1280556668296246e-01
      1.1797932513025569e+00 -1.1414549788298907e-01
      -3.6509601399917035e-01 -1.1450694575509561e+00
      -1.6561992415971576e+00 4.1482886981374584e-01
      -2.1777376676535170e+00 3.1456879668436299e-01
      1.5271171797341658e+00 1.3402418308448671e+00
      4.6341171963055844e-01 -1.7982592280053442e+00
      -3.3376158549050994e-01 8.5869654632963788e-01
      -1.0356017597576876e+00 -2.9491243724448063e-01
      3.9207857312920442e+00 1.4380466366425801e+00
      1.9492290654046893e+00 -2.7649377327342628e-01
      1.3362347675985322e+00 3.8299798000863594e-01
      -9.2825856947257801e-01 2.1782816005768724e+00
      -3.3977944594243720e-01 6.2629212909485399e-01
      -1.1719460143805489e+00 1.0121773076576503e+00
      -1.4101327132909462e+00 5.2572437306564612e-01
      4.6162964763507669e-01 -8.5207516331880051e-01
      -1.2393426171858435e+00 1.5446112639914478e+00
      3.5266564947855544e-01 -5.2422931553136176e-01
      -2.4128430409598800e+00 -3.8287201464312859e-01
      2.1882180893433703e-01 6.2174814383727606e-01
      -1.9838643842721471e+00 1.3455527379427787e+00
      -1.6276625929409312e+00 1.0822610594643878e+00
      -3.4199936076213627e-01 2.0914584249706597e-01
      -8.1796519892311725e-01 7.1906599438609220e-01
      2.4525318352123845e-02 -4.7283076882324554e-01
      3.0098786709976444e-01 -3.4338603920823649e+00
      -9.4934983399852468e-01 6.3367540084713514e-01
      -1.1279079169229553e+00 -6.6122782329994723e-01
      2.5920820981043358e+00 1.9987482965140300e+00
      1.9742459449974081e-01 1.9758199294693339e+00
      1.1533059441660516e+00 -1.4484017442445627e+00
      -1.4357284860053972e+00 3.1275043108829564e-01
      5.0642821245156588e-01 -1.8110880938843452e-01
      -1.3135219242995571e+00 -1.0874444418032607e+00
      -1.5726857709159556e+00 2.5653180917011620e-01
      5.1227509711433517e-01 1.2171738397314895e+00
      -1.4880341487794843e-01 3.2582725145585850e-01
      1.0114756208024167e+00 5.3633389324777303e-01
      -2.2912868563550348e+00 -1.1120391252325981e+00
      -1.0725846543233968e+00 1.0220410552019448e+00
      -3.5561498279349690e-01 -8.9974618389826497e-02
      -1.4164683177545503e+00 -2.8994564178070331e-01
      1.7533684745626574e+00 1.4732229962612866e+00
      -3.0634802895854829e-01 8.5487448899017437e-01
      -3.1118603671828265e-01 7.6058804892691667e-01
      -2.4098716244063753e-01 -1.8040702670687634e+00
      -3.8592139636342671e-01 3.3704710812564396e+00
      -4.3038742660634155e-01 -8.3839354811921807e-01
      1.4892237724358990e+00 9.6463161508621620e-01
      7.8741004897050904e-01 1.0213161729469540e+00
      7.0043230142995516e-01 -1.8525240169414179e+00
      1.6027900491672102e+00 -1.2551109241338215e-02
      1.8378037462288412e+00 5.6923064088393105e-01
      1.7853112665038440e+00 -6.7716013385865892e-01
      -1.3605495276842892e+00 -3.6962271511794215e-01
      1.7091401693240935e+00 4.5085037655999549e-01
      -7.0801518530453955e-01 -2.8284508904851735e-01
      2.5458982381219588e+00 8.1011024063334292e-01
      -1.2836131026181481e+00 1.5301291401377556e-01
      4.7894722016041191e-01 1.2058869071514529e+00
      -1.9983797396881289e+00 1.9387717136860849e+00
      -1.8024990123408580e+00 -1.4105289171854696e+00
      1.3386940373635119e+00 5.2849352547344497e-01
      3.5175955424368781e+00 2.2454610752813911e+00
      -1.7349092835463975e+00 3.3925754067260527e-01
      -1.4847748278355553e+00 5.0209614192659813e-01
      8.2599740029705171e-01 -1.2529288962753842e+00
      -2.3447032804340015e-01 2.0056726464869192e+00
      -7.9417568412921735e-01 3.8546711420760146e-02
      3.5473127154381279e-01 6.7483725969861108e-01
      -1.2740341001024384e+00 4.1762715921830912e-01
      2.3112228947865212e+00 8.9823038436017244e-01
      1.2296261372713808e+00 -4.9518684538240543e-01
      -2.1069876270408865e+00 -6.2419489619064139e-01
      2.5375308184308620e-01 4.7836019864882473e-01
      -8.8094638386900204e-01 -7.9051308351300698e-01
      -8.7022109772694622e-01 4.7995219575195411e-02
      4.8257234945043398e-01 -7.5000545830481713e-01
      4.2074300849794777e-01 6.6372248664955291e-01
      7.0371918716572124e-01 1.5973283334162229e+00
      -1.3236174766667672e+00 1.5296717501129382e+00
      -1.1362647336899445e+00 -4.0427559926784538e+00
      5.4684698932109566e-01 4.1601575231906224e-01
      9.3577049467320428e-01 -2.4652944342616998e-01
      -2.0299742626563577e-01 -8.0284614140441157e-01
      1.8351841928555446e+00 1.2719143516229905e+00
      5.0728759587260752e-03 1.1145001837901070e-01
      -1.2480597804546412e+00 -3.7319986011100037e-02
      2.2473145315177176e-01 -1.7800010720884046e-01
      2.0073887354210923e-01 3.7310042454288916e-01
      -4.8713361211691558e-01 1.2537968037253249e+00
      -4.6106774231210085e-01 -2.2845536697359226e-01
      1.1209230736677083e+00 4.2771785418071706e-01
      -7.9623414627797533e-03 -4.4728304296859939e-01
      4.7257753743116769e-02 -1.4776313372651240e-01
      8.2755233721460236e-02 1.4577238559361090e+00
      9.1703276452203164e-01 7.5129516258494136e-02
      -1.0045720341765441e+00 -2.8541110703182521e-01
      -1.7750974719929937e+00 5.7261425179544778e-01
      -5.1979860021671909e-01 2.0614860963341974e+00
      1.0141685001113447e+00 1.2584552336617287e+00
      -3.0672027995333628e-01 -3.9363926129572063e-01
      9.5188324030456906e-01 1.7466364630921513e-01
      -9.1779832136514650e-01 4.6322811279872916e-01
      -2.1426286097752284e-01 -2.5012392214080021e+00
      3.1738192037503532e-01 1.5447860016298014e+00
      -3.9210626843815299e-01 -8.6510411533632403e-01
      4.6967213642100569e-01 6.4293313951122899e-01
      -1.2817374320203492e+00 1.1665302049422741e+00
      -4.0348131227568179e-01 -4.0108907827195200e-01
      2.9555182459021645e-01 -1.7545498562152462e+00
      -6.3271563843240353e-01 6.2183930925398212e-01
      4.2533235902809291e-01 4.9301332735419917e-01
      6.9173864052964912e-02 -5.8216415996601723e-01
      1.0010677985495906e+00 -3.4864062981511396e-01
      4.6628518146366876e-01 2.3596144981985319e+00
      -4.2081635116086438e-02 3.3857754750669700e-01
      1.5673586149834313e+00 1.9613318429080364e+00
      -1.4439567933904947e+00 -1.1412569005020445e+00
      -2.4891416803323760e-01 -1.0014971836875610e+00
      9.9035793139741835e-01 1.8917960117147639e-01
      -8.6963183635506625e-01 -1.7337235160302153e-01
      -1.3304992528777260e+00 1.1923240564429941e-01
      2.4944021051845269e-01 2.4140461782667910e+00
      1.3286145578892547e-01 -1.4590778430124205e+00
      1.5577629069215380e+00 2.6543413117437802e+00
      -2.5982205367572968e+00 1.2541287918856170e+00
      1.0474705116918870e+00 2.3916002706658146e+00
      -1.5984920840439754e+00 7.8565057934770410e-01
      -6.0239054725170160e-01 -4.8941187722194618e-01
      3.6180257870619842e-01 -1.7255914550831519e+00
      4.7244474251697943e-01 1.6767683313961617e+00
      1.4491109942040481e+00 -9.8029781949467099e-02
      -2.3752627688360413e+00 1.4231316580249187e+00
      5.7973162410696677e-01 -1.7251310212259138e-01
      3.8672465475032314e-01 1.1537962867870919e+00
      4.8195013970026684e-01 4.3230590916675977e+00
      3.4578333021193924e-01 1.1129801391132392e+00
      -1.5969855916963915e-01 -2.3199288029635773e-01
      -7.5308751758032699e-02 -9.3717892583574425e-01
      1.3317542575561860e+00 -5.5757269582155522e-01
      -1.4342848939740083e+00 8.2443187529623219e-01
      5.3470394631386875e-01 8.4284759819430599e-01
      -2.4423653586221890e+00 2.5829204820187840e-01
      3.9326907959617396e-01 -1.4557241743605474e+00
      1.1956835640422366e-01 1.9372296719091633e+00
      -9.7773710382052426e-01 1.9285414865523576e+00
      3.3897398201570039e-01 1.0437476621150954e-01
      -2.8542632657732963e+00 2.7471108648556793e-02
      -1.2437499175005213e+00 -2.3210348053490510e+00
      4.8557460749597897e-01 -1.4050114128087594e+00
      2.3983034973570891e-02 1.5987917295012148e+00
      1.2293629862184183e+00 9.4240693186332569e-01
      -2.0090865714226203e+00 2.4676403447887449e+00
      -1.0229863333415039e+00 3.0707011603854151e-01
      -5.5315599448370674e-02 -6.5520865294493147e-01
      5.4769240060621005e-02 -2.4741446495099620e-01
      2.3273228943115667e+00 1.1143027342189631e-01
      2.3891777294309643e-01 1.5022596423883718e+00
      -6.1702263561381913e-02 -1.1012480987333735e+00
      -5.1877811458975243e-01 5.4016144231718399e-01
      7.1797831862067873e-01 -1.0147113404696124e+00
      -1.2299382487649839e+00 -1.0795319601315809e+00
      1.5075225977998101e+00 -2.5799531608847013e+00
      -6.9136303347410766e-01 -2.3684398619136826e+00
      -3.3061937154371562e-01 -1.3167149869975292e+00
      1.0886351584992144e+00 2.1511960545965363e+00
      -1.1506122785798518e-01 2.9810561635361470e+00
      -1.5925767257656895e+00 -9.8459842400194242e-01
      -5.6915285026914286e-01 -2.3308912650289129e+00
      -1.2487166935917120e+00 -4.0456891034725810e+00
      2.4263513014561338e+00 3.4287445086727170e-01
      3.5032677244365726e+00 -2.1260518362355949e+00
      -3.2008069246454207e+00 8.1004786499120116e-02
      -4.5678349186115103e-01 2.5935030494043905e+00
      -2.2181705833857979e-01 -3.4180020799988462e+00
      -2.2068359178619565e+00 7.2124213888929667e-01
      -1.0383399955185681e+00 1.5289444238782854e+00
      2.3558735986435502e+00 7.1599003751089030e-01
      -1.8459273434107917e+00 -1.5679696518728776e+00
      -4.7507336767924124e-01 -5.4931128104413149e+00
      1.7355459697749731e-01 -1.8322764021780433e+00
      -6.3749273766281045e-01 -4.2867344240056457e+00
      4.6909957051177925e-01 6.7417897047393649e-01
      -1.6708933339262357e+00 1.5070571657058598e+00
      2.2776214845472729e+00 -1.0735788366556016e+00
      1.0665001750710945e+00 -2.5027891475556180e-01
      -2.0444687667794417e-02 1.5154529713530078e+00
      1.3043479807959615e+00 -1.8100001828572104e-02
      1.6843558285327895e+00 -5.4548562475040729e-01
      -6.6471267360390451e-01 -3.7582585042085137e-01
      2.0727420677289587e+00 1.2810482259052793e+00
      2.1952592913451281e+00 -7.9364956576204504e-01
      -1.0002317037044666e+00 -2.7566294770686937e+00
      -7.5406145900402732e-02 1.5894154329314762e+00
      -7.7511056974396683e-02 -3.4062416989045468e+00
      -3.0465555377835291e-01 1.5210059113411678e+00
      -4.4394954048818951e+00 -1.6845781757525071e+00
      7.0812420795226461e-01 -1.4332374488498172e+00
      -7.4079937518724071e-01 7.1503618189558127e-01
      -1.3862057022597440e+00 -4.8553723445115322e+00
      1.1781490709185178e+00 1.0776178297514094e+00
      -1.6721413368145570e+00 -1.6009173921160444e+00
      5.1707871988203524e-01 1.6864275552207664e+00
      8.0489512256139650e-01 4.1453809658734819e+00
      1.6171196177227054e+00 -1.7975023597512890e-01
      -1.8448161464104675e+00 1.1972917008095982e+00
      -1.1394968784578661e+00 -1.6707865586996060e+00
      3.3407408100281866e+00 -2.2594248132331801e-01
      6.3117828474681847e-01 -2.3033772337590541e+00
      -8.2838471945791761e-02 1.1815186188470685e+00
      -3.8285521382622245e+00 3.7241211199537467e+00
      -4.9870419993075338e-01 -1.2724609651942851e+00
      -1.1604694347630018e+00 -6.2765849751952740e-01
      -4.5310074240705062e-01 5.8838768747794346e-01
      -1.4092508047463237e-01 -4.3426018057712200e-02
      -2.7158595471856806e-01 -2.6545236022701790e-01
      -7.5201460613902216e-01 -4.0188942141294230e+00
      -2.3680818140712629e+00 -7.6676110774508988e-01
      -3.0127891701707610e-01 2.8457878768078193e+00
      -3.5771025997271924e+00 1.4097610032981216e+00
      -1.3094953045056474e+00 1.4672054657874549e+00
      -7.7175538921657094e-01 -6.8404777018521268e-02
      -7.5411019206572905e-01 2.0076481703731295e+00
      -2.8879982633208107e-01 9.6451663940511534e-01
      9.8116222233556039e-01 9.3570368048989527e-01
      4.8708508703975351e-01 8.7514925844517188e-01
      1.1448860557970755e-01 -1.8779721072960875e+00
      2.1066141030347234e+00 1.2528592133443903e+00
      -1.0364812148973797e+00 -3.2450783802788705e+00
      -1.6448678102792986e+00 -1.8746096907033077e-01
      -3.9292279421810101e+00 3.0070454712485071e+00
      8.6942536012593097e-01 -1.2107581400919862e+00
      -8.5433838994713307e-01 -4.7729484694833857e-01
      5.1487728751075112e-01 -2.8427210707123041e-01
      -5.7798277413559040e-01 1.6519247616888355e+00
      9.2642148108781508e-01 5.0842224648663981e-01
      3.0194621165993620e+00 -2.8748852225724515e+00
      -1.2278560967150394e+00 -7.7711998471812593e-01
      -1.8524719208057179e+00 8.7526332266912632e-01
      -1.7604917544336651e+00 8.8207781694234311e-01
      -2.9517586079389453e+00 2.9904138395023111e-01
      -4.3229693957573417e-01 3.6164312459411102e-01
      9.6963818609969732e-01 -1.8549982427874895e-01
      -6.2453887724102382e-02 1.0944548231016886e+00
      -1.7704726865373668e-01 2.7619143441264491e+00
      -6.0503295367700338e-01 7.3048552688531010e-01
      8.0038155349265172e-01 -1.2959915323894782e+00
      -1.5371122949028282e-01 -9.6068311125929995e-01
      1.1119189130212397e+00 -1.9398387276825528e+00
      -1.3484301956458156e+00 -1.1105323705410436e-01
      -2.2876094968784666e+00 1.3418064250017543e+00
      6.0895014635342759e-01 -1.0118343737016195e+00
      -5.0644971235112135e-01 -1.0574312846826219e+00
      3.4798107501884507e-01 -3.0848980943162929e-01
      -7.0337549956850942e-01 -1.8980596465302635e-01
      4.2871342419476982e-01 -3.9866222984557248e-01
      1.7303309512924678e+00 1.1643044368816373e+00
      -8.9221124750994818e-01 -5.5983022035534147e-01
      -5.0881619179829152e-01 1.5768298452281544e+00
      -8.6318825858500281e-01 -4.3020746991914616e-01
      -2.4278903177841019e-01 2.9946884792708017e-01
      -1.0755511928270591e+00 1.2142047840647278e-01
      1.9198353332879023e+00 1.0636748704330667e+00
      -1.4874806361066357e+00 3.5857876156011670e-01
      -1.0063003407724569e+00 1.6026516314521028e-01
      2.8860946370783375e-01 -1.0323633171984037e+00
      -2.5410565796622975e-01 8.7237802385007279e-02
      1.1519340004480538e+00 -7.6838447671189625e-01
      7.8671761110473626e-01 9.5768900403712613e-03
      -1.4297148205402943e+00 5.2451889687538111e-01
      -7.1536677537378901e-01 6.7868527929492495e-01
      1.8628930049203174e+00 -2.0006855791976849e-01
      -2.2697688238381173e+00 -7.4009427924696736e-01
      3.3795686710260591e+00 5.4297201117171423e-01
      -2.3257679351217324e+00 -6.3716160279961442e-01
      -6.0630961211704315e-01 -2.9754842417193028e-01
      6.9840709032856205e-02 -2.4798014413968583e-01
      -4.0211726689947014e-01 6.6200599460463083e-01
      2.6156255706049863e-01 3.2755074252604754e-01
      -7.4312839388899976e-01 1.4756835838975557e+00
      -9.6971914115483793e-01 -1.7796689989864765e+00
      7.4640702862392505e-01 -8.3249089902324680e-01
      -6.8587180562409089e-02 -2.1001347207475193e-01
      -7.7068340741500296e-01 -6.6019224117299213e-01
      1.0540543852850155e+00 -2.4076856221014201e-01
      -1.2609997928810603e+00 -3.4446014268032288e-01
      -4.0385181933917064e-01 1.1767634233184747e-01
      4.6750016850672482e-01 -1.9290068463021615e-01
      1.2713180664899675e+00 1.3123711854829057e+00
      -8.1197030522490887e-01 -2.0293293603511789e-01
      8.5383320571600485e-01 -1.6353149831735942e+00
      2.7167820058105885e-01 5.5054996698444569e-01
      -8.0046176222720244e-01 -2.4311496309825636e-02
      2.5559195951013741e-01 5.1283886417699742e-01
      7.7129292773300095e-01 3.8169935292437396e-01
      4.8936843305897260e-02 -9.3312951006246980e-01
      -1.0538842724180206e+00 -1.9590630732281173e+00
      2.6625604898014629e-02 9.2870142791733279e-01
      2.3469368069870600e-01 -6.4377270810481924e-01
      1.4592031843519551e+00 7.0496959352024813e-01
      3.0988629042989942e-02 3.0866039371585538e-02
      -1.0380339754670291e+00 -3.4162890789703115e-01
      -8.2686715940312201e-03 -4.3326294619154915e-01
      2.8229708232218059e-01 1.5068127103350311e+00
      5.3716347188283975e-01 -1.8294428191349108e-02
      4.0255613674836301e-02 1.0478940488573989e+00
      -4.9984183655667158e-01 1.0811846760444672e+00
      9.1638283493585704e-01 -1.9375521351915695e-01
      4.6325821231002995e-01 3.1410659732127333e-01
      -8.8709801862540613e-02 5.1335932959964581e-02
      2.0402002084192450e+00 2.6205986366858243e+00
      -2.9742912427000240e-01 -4.1795230086161306e-01
      1.2004525354925998e-01 5.1731614858223064e-02
      5.1077930586988840e-02 -7.3856534629208148e-01
      1.3019130844799880e+00 2.4820998815321613e-01
      2.8464923103265982e-01 -2.7455480106482588e-01
      -4.8339227457000727e-01 -1.1866482645045544e+00
      2.6976375680360365e-01 6.2326895782979141e-01
      1.4237076600749485e-01 3.5609796290925361e-01
      -3.1899389032594977e-01 1.2837371937761786e+00
      -7.6036475715517626e-01 7.7955813733332924e-01
      -1.6962115816837053e+00 1.7393037180933051e+00
      -6.7206199279078294e-01 -8.1988284655138699e-01
      -2.2301325225773461e-03 1.0052135857253215e+00
      8.1253053679374121e-01 1.2014745740289103e+00
      9.7158965205171455e-01 -2.4057362423797124e-01
      -1.2142903093824113e+00 1.4461936772416992e+00
      2.0210312484749271e+00 6.6236067455708847e-01
      -1.1469542715771239e+00 -6.8794654104768571e-01
      -3.2604972165317569e+00 -2.1651370370832650e+00
      -1.5363730470622048e+00 4.0661552065609134e+00
      1.1241763405304839e+00 -2.4681119502658355e-01
      -1.7902160867386043e+00 6.0304560332571644e-01
      -8.7032063749188193e-01 -2.7407262248795011e-01
      3.8723582559133629e-01 2.0047622896827980e-01
      5.9089084150047259e-02 -1.2062420961150400e+00
      7.5878059253612984e-01 -9.5345468729273630e-01
      -1.1270952351734553e+00 1.7633470351558347e+00
      1.2222124731619313e+00 -1.2736426738245510e+00
      -1.6284887022792943e-01 -7.0406320747337203e-01
      -3.6232094111124669e-01 2.4038141863070988e+00
      -3.7103768103194007e-01 -8.1007855157923458e-01
      -6.9820666421535715e-01 2.2869634206175199e-01
      -1.8405550475102916e-01 1.2103554706867556e+00
      1.7066669695532701e+00 2.7335676942359775e+00
      -4.7456029082142838e-02 -5.5974391799691725e-01
      -1.4445101772573055e+00 1.0478099062732833e+00
      -1.0995747977799635e+00 7.7846126287788375e-01
      -1.7554977392413202e+00 -1.0946749960656686e-01
      -6.8754146551956208e-01 -1.7819887974420816e+00
      -2.7624850282993074e-01 2.7142649770102034e+00
      1.3193303211402114e+00 -1.1093293426015660e+00
      -8.3154183436089590e-01 1.3148707636861932e+00
      -3.1243644557025896e-01 -9.5865536580363375e-01
      -1.9932564948453813e-01 1.3765740417681005e+00
      2.2047272707660684e-01 -2.5645049894812599e+00
      -5.4124577218467784e-01 -1.0273365380544341e-01
      1.2426729617422858e+00 6.6228199828121048e-01
      1.0921971055271591e+00 5.6840599108008949e-01
      1.8633310552040816e+00 1.0725258391382244e+00
      -1.0993219206432410e+00 2.5029581177267612e+00
      -1.7983074250598499e+00 -1.6207559564492424e+00
      1.3496928839224376e+00 -1.9927176336348553e+00
      -1.8208992232687968e+00 -9.0070621114594418e-01
      -3.7578333990709967e-01 2.1529251053280674e-01
      -1.0967485103504844e+00 -5.3110341576556597e-01
      -5.5259485732685687e-01 1.6797884312472473e+00
      -1.3527936924995625e+00 -9.6032052526232359e-01
      -2.7206699505396043e-01 3.4918320524465469e-03
      5.1145792351964936e-01 -2.2812113367024427e+00
      -1.1778038006529281e+00 -1.8057510784717767e-01
      2.9525488550138186e+00 -9.2065607833509810e-01
      5.2798855022026125e-01 -1.0128289033406317e+00
      -5.3048919601753075e-01 3.3532809287765281e-01
      3.2873851539612819e-01 -2.8460753181553913e+00
      -1.1934622056416604e+00 -1.5968745558104080e+00
      9.2183670433450282e-01 3.1686726339917497e+00
      6.5989528173582002e-01 7.7996974092288052e-01
      2.4689612849148290e-01 -2.5578432276664294e+00
      4.8409946154267680e-01 -2.4078800488371370e+00
      9.2966561364344225e-01 2.0078109690135713e+00
      -2.4966227456144860e+00 -3.8467818577502793e+00
      1.2728382035527455e+00 1.0205728661066924e+00
      -3.8689856820550241e-02 9.5153759644417801e-02
      2.7630379827778051e+00 -3.0431031450630410e+00
      1.1052512187379413e+00 3.9082353117197188e-01
      -2.0541248087924879e+00 -2.1574996204407668e-01
      -4.0313664975584529e-01 -3.2513673058976761e-01
      2.4773503101510066e+00 -7.0805176629617594e-01
      -1.0132539967747198e+00 1.0767730327391531e+00
      -1.6820000114132612e+00 5.4975497981575838e-01
      2.1615230098126261e+00 1.9481024332975114e-01
      1.0890411106197369e+00 -4.0881625642502142e+00
      9.8285764175141149e-02 6.4772411324038703e-01
      2.8120572643294334e-01 -1.8794484985316575e+00
      -1.7614139141201524e+00 4.1344287959892123e-01
      -2.6865794679970940e+00 6.0654250092821305e-01
      -6.8265726873135957e-01 -1.0458638855436597e+00
      1.3867344376068597e-01 -5.0734009689334214e-01
      1.4164681829440642e+00 -2.7045910638538722e+00
      1.2525604513376090e+00 9.3712056809611732e-01
      1.4432595959534087e+00 -1.9939578871876713e+00
      2.1130342737927235e-01 2.5832911754827173e+00
      1.8367794090245768e+00 4.5005361716303938e+00
      8.5941467928648452e-01 1.2389437514818475e+00
      -8.0308245176337945e-01 1.4090052139445770e+00
      6.2778428844766265e-01 -2.8120357234330449e+00
      -3.0840795531291150e+00 -2.8041774212229411e+00
      -3.6855720127257339e+00 -3.9841713240122947e+00
      -1.2829440140969572e+00 1.5235881732420107e+00
      -4.0624748234345809e+00 2.6344504808492064e+00
      -1.2760709392613816e+00 -2.3026984622471387e+00
      1.3634933045615045e+00 -3.1124851627973289e+00
      1.4709373625273776e+00 7.7357472342354328e-01
      1.0811825328530481e-02 5.1806824512260741e-01
      -6.4317065878095070e-01 -1.0746871455500960e-01
      -1.8618839724038408e-01 -1.6070630484521983e-01
      -8.7588799894235986e-02 2.1136611184080611e+00
      -2.7496039684689793e+00 2.4465240495514351e+00
      1.7091531548449519e+00 1.3171141658018188e+00
      5.0541230431253992e-01 -1.3857877228785014e+00
      6.7461427170244137e-01 -2.6422546066744359e+00
      1.4092956398864931e+00 7.8971260108700436e-01
      1.0566459090781948e+00 3.2882651058732537e+00
      1.1792186335242645e+00 1.2957311717678144e-01
      -2.4058037630733593e+00 9.4814989092892965e-01
      7.4663964115686543e-01 -2.5892046920269318e+00
      -2.3299059618402782e+00 -1.0034702133899942e+00
      -4.1568252746454215e+00 -3.4139130841565342e+00
      -7.4015936385359438e-01 1.0974531429767151e+00
      -1.2492797534791509e+00 1.8085585528088730e+00
      -1.0739531129660398e+00 -1.9199278619255609e+00
      5.6522348926162724e-01 -1.4238108076572420e+00
      1.0578621562513786e+00 1.9400249339181683e+00
      3.4498202167695396e-01 -2.3665877013498027e-01
      -1.2188523845202364e+00 -4.1818858800643677e-01
      -5.3146886076185884e-01 -2.2562610637417726e+00
      -3.3565943036416673e-01 2.7233865603763876e+00
      -1.7265019424171266e+00 2.9643482807059947e+00
      9.0496510454561641e-01 2.1510171139651000e+00
      5.6775389667209131e-01 1.1249289688933766e+00
      -1.0401656342631198e+00 -2.4352575389098838e+00
      8.8705204044982056e-01 -2.2839608402166012e+00
      2.1383104924767066e-01 2.0653490816500399e+00
      3.4823288092175497e-01 1.1270272768740150e-01
      -5.3704030505311751e-01 -2.1565203955727882e-01
      -1.0705404253491964e+00 8.9445157925644969e-01
      -2.0737946696012322e+00 6.4725937545347667e-01
      -1.2520081333590467e+00 -9.0504969110640976e-01
      6.9113810210256488e-01 -1.3756963518212848e+00
      2.3372806004964601e-02 3.3672217823176365e-01
      -5.2895691134376643e-01 -1.2492087733124213e+00
      8.3852356078966428e-01 -5.7332698997501086e-01
      1.5238379086002112e+00 8.8187330143102205e-01
      2.3415630245028026e-03 -6.2901876717151817e-01
      -7.2561589530653037e-01 6.8065104722892922e-01
      -6.9576189696689239e-01 -1.1463543397598597e+00
      -3.5439110184731609e-01 5.9197254642961228e-01
      -7.7999436884257117e-02 1.2622077225074166e+00
      7.8635450426388154e-01 1.1966750624655789e+00
      2.6916254677281309e-01 1.0221097350884294e+00
      4.9119209312646772e-01 -1.2600770942515982e+00
      1.2389897817469870e+00 -8.1303554209091425e-02
      -3.4396086887235694e-01 3.0796295967147236e-01
      4.1582131008306500e-01 -1.9197490950661275e-01
      -2.1950938886418933e-01 4.8972226656000861e-01
      7.4143475477563087e-02 -7.7507804395816715e-01
      1.6845399541099229e+00 -1.6137160723075699e+00
      1.3347084528446020e+00 6.8620403962202026e-01
      -1.0737497462129362e+00 2.9481219828821298e-01
      5.2113414536891067e-01 5.5801597186096819e-01
      1.7511418282720170e+00 -1.4340789732088385e-01
      -1.5966839183401660e+00 -2.2779352113554467e-02
      2.8247969141237155e+00 8.5680095501746467e-01
      -1.0666915900447047e+00 1.6554705762276669e+00
      -1.0136260992452373e+00 2.1098187726388765e-01
      -6.2582142414969100e-01 -1.2245277804630290e+00
      5.2519664210660744e-01 8.8190294704518557e-01
      1.1141216495172046e+00 6.9039602873210915e-01
      -3.6932609454566967e-01 7.8276047864559239e-01
      7.2379879815943926e-01 -1.5692170389117006e+00
      -1.5395070716760470e-01 -2.9009803867017692e-01
      -5.9437562397207844e-01 4.4681103219397356e-01
      -7.5759528828718092e-01 -1.8653623683484757e+00
      1.2451495355210678e+00 4.7775972488523233e-01
      -2.4178687474309879e-01 3.6372527159857398e-01
      -5.8090590414804433e-01 3.1596057854148474e-01
      7.7680812837939761e-01 -2.2280393742419038e-03
      5.9137407587684931e-02 -2.5319358133953312e-01
      -4.4783628738044112e-01 -3.7741002832016751e-01
      6.5851254109822732e-01 -3.1227926363253500e-01
      -1.1080152421982965e+00 2.7824736145537959e-01
      -6.1420603417205721e-01 -4.6139579828995175e-01
      5.5163109343911043e-01 1.0469932235064321e+00
      7.2893676034816690e-01 -6.7530170826937663e-01
